digraph Tree {
node [shape=box, style="filled, rounded", color="black", fontname="helvetica"] ;
edge [fontname="helvetica"] ;
0 [label=<node &#35;0<br/>duration &le; 206.5<br/>gini = 0.499<br/>samples = 100.0%<br/>value = [0.526, 0.474]<br/>class = No>, fillcolor="#fcf2eb"] ;
1 [label=<node &#35;1<br/>poutcome_failure &le; 0.5<br/>gini = 0.325<br/>samples = 40.1%<br/>value = [0.796, 0.204]<br/>class = No>, fillcolor="#eca16c"] ;
0 -> 1 [labeldistance=2.5, labelangle=45, headlabel="True"] ;
2 [label=<node &#35;2<br/>duration &le; 113.5<br/>gini = 0.271<br/>samples = 37.5%<br/>value = [0.839, 0.161]<br/>class = No>, fillcolor="#ea995f"] ;
1 -> 2 ;
3 [label=<node &#35;3<br/>duration &le; 77.5<br/>gini = 0.123<br/>samples = 17.8%<br/>value = [0.934, 0.066]<br/>class = No>, fillcolor="#e78a47"] ;
2 -> 3 ;
4 [label=<node &#35;4<br/>age &le; 71.5<br/>gini = 0.038<br/>samples = 9.9%<br/>value = [0.981, 0.019]<br/>class = No>, fillcolor="#e6833d"] ;
3 -> 4 ;
5 [label=<node &#35;5<br/>age &le; 23.5<br/>gini = 0.036<br/>samples = 9.9%<br/>value = [0.982, 0.018]<br/>class = No>, fillcolor="#e5833d"] ;
4 -> 5 ;
6 [label=<node &#35;6<br/>balance &le; 881.5<br/>gini = 0.32<br/>samples = 0.1%<br/>value = [0.8, 0.2]<br/>class = No>, fillcolor="#eca06a"] ;
5 -> 6 ;
7 [label=<node &#35;7<br/>gini = 0.0<br/>samples = 0.1%<br/>value = [1.0, 0.0]<br/>class = No>, fillcolor="#e58139"] ;
6 -> 7 ;
8 [label=<node &#35;8<br/>gini = 0.0<br/>samples = 0.0%<br/>value = [0.0, 1.0]<br/>class = Yes>, fillcolor="#399de5"] ;
6 -> 8 ;
9 [label=<node &#35;9<br/>duration &le; 68.5<br/>gini = 0.033<br/>samples = 9.8%<br/>value = [0.983, 0.017]<br/>class = No>, fillcolor="#e5833c"] ;
5 -> 9 ;
10 [label=<node &#35;10<br/>recent_pdays &le; 0.012<br/>gini = 0.019<br/>samples = 7.9%<br/>value = [0.99, 0.01]<br/>class = No>, fillcolor="#e5823b"] ;
9 -> 10 ;
11 [label=<node &#35;11<br/>age &le; 34.5<br/>gini = 0.016<br/>samples = 7.9%<br/>value = [0.992, 0.008]<br/>class = No>, fillcolor="#e5823b"] ;
10 -> 11 ;
12 [label=<node &#35;12<br/>balance &le; 332.5<br/>gini = 0.043<br/>samples = 2.3%<br/>value = [0.978, 0.022]<br/>class = No>, fillcolor="#e6843d"] ;
11 -> 12 ;
13 [label=<node &#35;13<br/>gini = 0.0<br/>samples = 1.3%<br/>value = [1.0, 0.0]<br/>class = No>, fillcolor="#e58139"] ;
12 -> 13 ;
14 [label=<node &#35;14<br/>balance &le; 338.0<br/>gini = 0.095<br/>samples = 1.0%<br/>value = [0.95, 0.05]<br/>class = No>, fillcolor="#e68843"] ;
12 -> 14 ;
15 [label=<node &#35;15<br/>duration &le; 37.0<br/>gini = 0.5<br/>samples = 0.0%<br/>value = [0.5, 0.5]<br/>class = No>, fillcolor="#ffffff"] ;
14 -> 15 ;
16 [label=<node &#35;16<br/>gini = 0.0<br/>samples = 0.0%<br/>value = [0.0, 1.0]<br/>class = Yes>, fillcolor="#399de5"] ;
15 -> 16 ;
17 [label=<node &#35;17<br/>gini = 0.0<br/>samples = 0.0%<br/>value = [1.0, 0.0]<br/>class = No>, fillcolor="#e58139"] ;
15 -> 17 ;
18 [label=<node &#35;18<br/>job_technician &le; 0.5<br/>gini = 0.074<br/>samples = 1.0%<br/>value = [0.962, 0.038]<br/>class = No>, fillcolor="#e68641"] ;
14 -> 18 ;
19 [label=<node &#35;19<br/>gini = 0.0<br/>samples = 0.7%<br/>value = [1.0, 0.0]<br/>class = No>, fillcolor="#e58139"] ;
18 -> 19 ;
20 [label=<node &#35;20<br/>duration &le; 29.5<br/>gini = 0.198<br/>samples = 0.3%<br/>value = [0.889, 0.111]<br/>class = No>, fillcolor="#e89152"] ;
18 -> 20 ;
21 [label=<node &#35;21<br/>gini = 0.0<br/>samples = 0.2%<br/>value = [1.0, 0.0]<br/>class = No>, fillcolor="#e58139"] ;
20 -> 21 ;
22 [label=<node &#35;22<br/>duration &le; 36.0<br/>gini = 0.355<br/>samples = 0.2%<br/>value = [0.769, 0.231]<br/>class = No>, fillcolor="#eda774"] ;
20 -> 22 ;
23 [label=<node &#35;23<br/>poutcome_success &le; 0.5<br/>gini = 0.444<br/>samples = 0.0%<br/>value = [0.333, 0.667]<br/>class = Yes>, fillcolor="#9ccef2"] ;
22 -> 23 ;
24 [label=<node &#35;24<br/>gini = 0.0<br/>samples = 0.0%<br/>value = [1.0, 0.0]<br/>class = No>, fillcolor="#e58139"] ;
23 -> 24 ;
25 [label=<node &#35;25<br/>gini = 0.0<br/>samples = 0.0%<br/>value = [0.0, 1.0]<br/>class = Yes>, fillcolor="#399de5"] ;
23 -> 25 ;
26 [label=<node &#35;26<br/>balance &le; 584.5<br/>gini = 0.18<br/>samples = 0.1%<br/>value = [0.9, 0.1]<br/>class = No>, fillcolor="#e88f4f"] ;
22 -> 26 ;
27 [label=<node &#35;27<br/>marital_divorced &le; 0.5<br/>gini = 0.5<br/>samples = 0.0%<br/>value = [0.5, 0.5]<br/>class = No>, fillcolor="#ffffff"] ;
26 -> 27 ;
28 [label=<node &#35;28<br/>gini = 0.0<br/>samples = 0.0%<br/>value = [0.0, 1.0]<br/>class = Yes>, fillcolor="#399de5"] ;
27 -> 28 ;
29 [label=<node &#35;29<br/>gini = 0.0<br/>samples = 0.0%<br/>value = [1.0, 0.0]<br/>class = No>, fillcolor="#e58139"] ;
27 -> 29 ;
30 [label=<node &#35;30<br/>gini = 0.0<br/>samples = 0.1%<br/>value = [1.0, 0.0]<br/>class = No>, fillcolor="#e58139"] ;
26 -> 30 ;
31 [label=<node &#35;31<br/>deposit_cat &le; 0.5<br/>gini = 0.005<br/>samples = 5.6%<br/>value = [0.998, 0.002]<br/>class = No>, fillcolor="#e58139"] ;
11 -> 31 ;
32 [label=<node &#35;32<br/>gini = 0.0<br/>samples = 4.4%<br/>value = [1.0, 0.0]<br/>class = No>, fillcolor="#e58139"] ;
31 -> 32 ;
33 [label=<node &#35;33<br/>campaign &le; 1.5<br/>gini = 0.022<br/>samples = 1.2%<br/>value = [0.989, 0.011]<br/>class = No>, fillcolor="#e5823b"] ;
31 -> 33 ;
34 [label=<node &#35;34<br/>balance &le; 207.0<br/>gini = 0.091<br/>samples = 0.3%<br/>value = [0.952, 0.048]<br/>class = No>, fillcolor="#e68743"] ;
33 -> 34 ;
35 [label=<node &#35;35<br/>balance &le; 178.5<br/>gini = 0.245<br/>samples = 0.1%<br/>value = [0.857, 0.143]<br/>class = No>, fillcolor="#e9965a"] ;
34 -> 35 ;
36 [label=<node &#35;36<br/>gini = 0.0<br/>samples = 0.1%<br/>value = [1.0, 0.0]<br/>class = No>, fillcolor="#e58139"] ;
35 -> 36 ;
37 [label=<node &#35;37<br/>gini = 0.0<br/>samples = 0.0%<br/>value = [0.0, 1.0]<br/>class = Yes>, fillcolor="#399de5"] ;
35 -> 37 ;
38 [label=<node &#35;38<br/>gini = 0.0<br/>samples = 0.2%<br/>value = [1.0, 0.0]<br/>class = No>, fillcolor="#e58139"] ;
34 -> 38 ;
39 [label=<node &#35;39<br/>gini = 0.0<br/>samples = 0.9%<br/>value = [1.0, 0.0]<br/>class = No>, fillcolor="#e58139"] ;
33 -> 39 ;
40 [label=<node &#35;40<br/>previous &le; 2.0<br/>gini = 0.444<br/>samples = 0.0%<br/>value = [0.667, 0.333]<br/>class = No>, fillcolor="#f2c09c"] ;
10 -> 40 ;
41 [label=<node &#35;41<br/>gini = 0.0<br/>samples = 0.0%<br/>value = [1.0, 0.0]<br/>class = No>, fillcolor="#e58139"] ;
40 -> 41 ;
42 [label=<node &#35;42<br/>gini = 0.0<br/>samples = 0.0%<br/>value = [0.0, 1.0]<br/>class = Yes>, fillcolor="#399de5"] ;
40 -> 42 ;
43 [label=<node &#35;43<br/>previous &le; 4.0<br/>gini = 0.091<br/>samples = 1.9%<br/>value = [0.952, 0.048]<br/>class = No>, fillcolor="#e68743"] ;
9 -> 43 ;
44 [label=<node &#35;44<br/>education_secondary &le; 0.5<br/>gini = 0.068<br/>samples = 1.8%<br/>value = [0.965, 0.035]<br/>class = No>, fillcolor="#e68640"] ;
43 -> 44 ;
45 [label=<node &#35;45<br/>gini = 0.0<br/>samples = 1.2%<br/>value = [1.0, 0.0]<br/>class = No>, fillcolor="#e58139"] ;
44 -> 45 ;
46 [label=<node &#35;46<br/>duration &le; 71.5<br/>gini = 0.18<br/>samples = 0.6%<br/>value = [0.9, 0.1]<br/>class = No>, fillcolor="#e88f4f"] ;
44 -> 46 ;
47 [label=<node &#35;47<br/>job_self-employed &le; 0.5<br/>gini = 0.469<br/>samples = 0.1%<br/>value = [0.625, 0.375]<br/>class = No>, fillcolor="#f5cdb0"] ;
46 -> 47 ;
48 [label=<node &#35;48<br/>balance &le; 9290.0<br/>gini = 0.278<br/>samples = 0.1%<br/>value = [0.833, 0.167]<br/>class = No>, fillcolor="#ea9a61"] ;
47 -> 48 ;
49 [label=<node &#35;49<br/>gini = 0.0<br/>samples = 0.1%<br/>value = [1.0, 0.0]<br/>class = No>, fillcolor="#e58139"] ;
48 -> 49 ;
50 [label=<node &#35;50<br/>gini = 0.0<br/>samples = 0.0%<br/>value = [0.0, 1.0]<br/>class = Yes>, fillcolor="#399de5"] ;
48 -> 50 ;
51 [label=<node &#35;51<br/>gini = 0.0<br/>samples = 0.0%<br/>value = [0.0, 1.0]<br/>class = Yes>, fillcolor="#399de5"] ;
47 -> 51 ;
52 [label=<node &#35;52<br/>job_pink-collar &le; 0.5<br/>gini = 0.091<br/>samples = 0.5%<br/>value = [0.952, 0.048]<br/>class = No>, fillcolor="#e68743"] ;
46 -> 52 ;
53 [label=<node &#35;53<br/>age &le; 52.0<br/>gini = 0.049<br/>samples = 0.5%<br/>value = [0.975, 0.025]<br/>class = No>, fillcolor="#e6843e"] ;
52 -> 53 ;
54 [label=<node &#35;54<br/>gini = 0.0<br/>samples = 0.4%<br/>value = [1.0, 0.0]<br/>class = No>, fillcolor="#e58139"] ;
53 -> 54 ;
55 [label=<node &#35;55<br/>age &le; 53.5<br/>gini = 0.278<br/>samples = 0.1%<br/>value = [0.833, 0.167]<br/>class = No>, fillcolor="#ea9a61"] ;
53 -> 55 ;
56 [label=<node &#35;56<br/>gini = 0.0<br/>samples = 0.0%<br/>value = [0.0, 1.0]<br/>class = Yes>, fillcolor="#399de5"] ;
55 -> 56 ;
57 [label=<node &#35;57<br/>gini = 0.0<br/>samples = 0.1%<br/>value = [1.0, 0.0]<br/>class = No>, fillcolor="#e58139"] ;
55 -> 57 ;
58 [label=<node &#35;58<br/>balance &le; 127.5<br/>gini = 0.5<br/>samples = 0.0%<br/>value = [0.5, 0.5]<br/>class = No>, fillcolor="#ffffff"] ;
52 -> 58 ;
59 [label=<node &#35;59<br/>gini = 0.0<br/>samples = 0.0%<br/>value = [0.0, 1.0]<br/>class = Yes>, fillcolor="#399de5"] ;
58 -> 59 ;
60 [label=<node &#35;60<br/>gini = 0.0<br/>samples = 0.0%<br/>value = [1.0, 0.0]<br/>class = No>, fillcolor="#e58139"] ;
58 -> 60 ;
61 [label=<node &#35;61<br/>previous &le; 8.0<br/>gini = 0.444<br/>samples = 0.1%<br/>value = [0.667, 0.333]<br/>class = No>, fillcolor="#f2c09c"] ;
43 -> 61 ;
62 [label=<node &#35;62<br/>recent_pdays &le; 0.014<br/>gini = 0.444<br/>samples = 0.0%<br/>value = [0.333, 0.667]<br/>class = Yes>, fillcolor="#9ccef2"] ;
61 -> 62 ;
63 [label=<node &#35;63<br/>gini = 0.0<br/>samples = 0.0%<br/>value = [0.0, 1.0]<br/>class = Yes>, fillcolor="#399de5"] ;
62 -> 63 ;
64 [label=<node &#35;64<br/>gini = 0.0<br/>samples = 0.0%<br/>value = [1.0, 0.0]<br/>class = No>, fillcolor="#e58139"] ;
62 -> 64 ;
65 [label=<node &#35;65<br/>gini = 0.0<br/>samples = 0.0%<br/>value = [1.0, 0.0]<br/>class = No>, fillcolor="#e58139"] ;
61 -> 65 ;
66 [label=<node &#35;66<br/>age &le; 76.5<br/>gini = 0.5<br/>samples = 0.0%<br/>value = [0.5, 0.5]<br/>class = No>, fillcolor="#ffffff"] ;
4 -> 66 ;
67 [label=<node &#35;67<br/>gini = 0.0<br/>samples = 0.0%<br/>value = [0.0, 1.0]<br/>class = Yes>, fillcolor="#399de5"] ;
66 -> 67 ;
68 [label=<node &#35;68<br/>gini = 0.0<br/>samples = 0.0%<br/>value = [1.0, 0.0]<br/>class = No>, fillcolor="#e58139"] ;
66 -> 68 ;
69 [label=<node &#35;69<br/>age &le; 24.5<br/>gini = 0.217<br/>samples = 7.9%<br/>value = [0.876, 0.124]<br/>class = No>, fillcolor="#e99355"] ;
3 -> 69 ;
70 [label=<node &#35;70<br/>housing_cat &le; 0.5<br/>gini = 0.48<br/>samples = 0.2%<br/>value = [0.4, 0.6]<br/>class = Yes>, fillcolor="#bddef6"] ;
69 -> 70 ;
71 [label=<node &#35;71<br/>duration &le; 90.5<br/>gini = 0.375<br/>samples = 0.2%<br/>value = [0.25, 0.75]<br/>class = Yes>, fillcolor="#7bbeee"] ;
70 -> 71 ;
72 [label=<node &#35;72<br/>gini = 0.0<br/>samples = 0.0%<br/>value = [1.0, 0.0]<br/>class = No>, fillcolor="#e58139"] ;
71 -> 72 ;
73 [label=<node &#35;73<br/>duration &le; 110.0<br/>gini = 0.18<br/>samples = 0.1%<br/>value = [0.1, 0.9]<br/>class = Yes>, fillcolor="#4fa8e8"] ;
71 -> 73 ;
74 [label=<node &#35;74<br/>gini = 0.0<br/>samples = 0.1%<br/>value = [0.0, 1.0]<br/>class = Yes>, fillcolor="#399de5"] ;
73 -> 74 ;
75 [label=<node &#35;75<br/>gini = 0.0<br/>samples = 0.0%<br/>value = [1.0, 0.0]<br/>class = No>, fillcolor="#e58139"] ;
73 -> 75 ;
76 [label=<node &#35;76<br/>gini = 0.0<br/>samples = 0.0%<br/>value = [1.0, 0.0]<br/>class = No>, fillcolor="#e58139"] ;
70 -> 76 ;
77 [label=<node &#35;77<br/>age &le; 65.0<br/>gini = 0.199<br/>samples = 7.7%<br/>value = [0.888, 0.112]<br/>class = No>, fillcolor="#e89152"] ;
69 -> 77 ;
78 [label=<node &#35;78<br/>balance &le; 137.0<br/>gini = 0.186<br/>samples = 7.5%<br/>value = [0.896, 0.104]<br/>class = No>, fillcolor="#e89050"] ;
77 -> 78 ;
79 [label=<node &#35;79<br/>age &le; 25.5<br/>gini = 0.078<br/>samples = 2.5%<br/>value = [0.96, 0.04]<br/>class = No>, fillcolor="#e68641"] ;
78 -> 79 ;
80 [label=<node &#35;80<br/>job_technician &le; 0.5<br/>gini = 0.5<br/>samples = 0.0%<br/>value = [0.5, 0.5]<br/>class = No>, fillcolor="#ffffff"] ;
79 -> 80 ;
81 [label=<node &#35;81<br/>gini = 0.0<br/>samples = 0.0%<br/>value = [1.0, 0.0]<br/>class = No>, fillcolor="#e58139"] ;
80 -> 81 ;
82 [label=<node &#35;82<br/>gini = 0.0<br/>samples = 0.0%<br/>value = [0.0, 1.0]<br/>class = Yes>, fillcolor="#399de5"] ;
80 -> 82 ;
83 [label=<node &#35;83<br/>education_tertiary &le; 0.5<br/>gini = 0.069<br/>samples = 2.5%<br/>value = [0.964, 0.036]<br/>class = No>, fillcolor="#e68640"] ;
79 -> 83 ;
84 [label=<node &#35;84<br/>duration &le; 112.5<br/>gini = 0.06<br/>samples = 2.5%<br/>value = [0.969, 0.031]<br/>class = No>, fillcolor="#e6853f"] ;
83 -> 84 ;
85 [label=<node &#35;85<br/>job_blue-collar &le; 0.5<br/>gini = 0.052<br/>samples = 2.4%<br/>value = [0.973, 0.027]<br/>class = No>, fillcolor="#e6843e"] ;
84 -> 85 ;
86 [label=<node &#35;86<br/>balance &le; 8.5<br/>gini = 0.044<br/>samples = 2.3%<br/>value = [0.978, 0.022]<br/>class = No>, fillcolor="#e6843e"] ;
85 -> 86 ;
87 [label=<node &#35;87<br/>balance &le; 7.0<br/>gini = 0.067<br/>samples = 1.5%<br/>value = [0.966, 0.034]<br/>class = No>, fillcolor="#e68640"] ;
86 -> 87 ;
88 [label=<node &#35;88<br/>balance &le; -1.5<br/>gini = 0.052<br/>samples = 1.4%<br/>value = [0.973, 0.027]<br/>class = No>, fillcolor="#e6843e"] ;
87 -> 88 ;
89 [label=<node &#35;89<br/>gini = 0.0<br/>samples = 0.6%<br/>value = [1.0, 0.0]<br/>class = No>, fillcolor="#e58139"] ;
88 -> 89 ;
90 [label=<node &#35;90<br/>marital_divorced &le; 0.5<br/>gini = 0.089<br/>samples = 0.8%<br/>value = [0.953, 0.047]<br/>class = No>, fillcolor="#e68743"] ;
88 -> 90 ;
91 [label=<node &#35;91<br/>duration &le; 80.5<br/>gini = 0.231<br/>samples = 0.2%<br/>value = [0.867, 0.133]<br/>class = No>, fillcolor="#e99457"] ;
90 -> 91 ;
92 [label=<node &#35;92<br/>gini = 0.0<br/>samples = 0.0%<br/>value = [0.0, 1.0]<br/>class = Yes>, fillcolor="#399de5"] ;
91 -> 92 ;
93 [label=<node &#35;93<br/>balance &le; 1.5<br/>gini = 0.133<br/>samples = 0.2%<br/>value = [0.929, 0.071]<br/>class = No>, fillcolor="#e78b48"] ;
91 -> 93 ;
94 [label=<node &#35;94<br/>gini = 0.0<br/>samples = 0.2%<br/>value = [1.0, 0.0]<br/>class = No>, fillcolor="#e58139"] ;
93 -> 94 ;
95 [label=<node &#35;95<br/>age &le; 29.0<br/>gini = 0.5<br/>samples = 0.0%<br/>value = [0.5, 0.5]<br/>class = No>, fillcolor="#ffffff"] ;
93 -> 95 ;
96 [label=<node &#35;96<br/>gini = 0.0<br/>samples = 0.0%<br/>value = [1.0, 0.0]<br/>class = No>, fillcolor="#e58139"] ;
95 -> 96 ;
97 [label=<node &#35;97<br/>gini = 0.0<br/>samples = 0.0%<br/>value = [0.0, 1.0]<br/>class = Yes>, fillcolor="#399de5"] ;
95 -> 97 ;
98 [label=<node &#35;98<br/>duration &le; 106.5<br/>gini = 0.04<br/>samples = 0.6%<br/>value = [0.98, 0.02]<br/>class = No>, fillcolor="#e6843d"] ;
90 -> 98 ;
99 [label=<node &#35;99<br/>gini = 0.0<br/>samples = 0.5%<br/>value = [1.0, 0.0]<br/>class = No>, fillcolor="#e58139"] ;
98 -> 99 ;
100 [label=<node &#35;100<br/>duration &le; 107.5<br/>gini = 0.219<br/>samples = 0.1%<br/>value = [0.875, 0.125]<br/>class = No>, fillcolor="#e99355"] ;
98 -> 100 ;
101 [label=<node &#35;101<br/>gini = 0.0<br/>samples = 0.0%<br/>value = [0.0, 1.0]<br/>class = Yes>, fillcolor="#399de5"] ;
100 -> 101 ;
102 [label=<node &#35;102<br/>gini = 0.0<br/>samples = 0.1%<br/>value = [1.0, 0.0]<br/>class = No>, fillcolor="#e58139"] ;
100 -> 102 ;
103 [label=<node &#35;103<br/>duration &le; 94.0<br/>gini = 0.444<br/>samples = 0.0%<br/>value = [0.667, 0.333]<br/>class = No>, fillcolor="#f2c09c"] ;
87 -> 103 ;
104 [label=<node &#35;104<br/>gini = 0.0<br/>samples = 0.0%<br/>value = [0.0, 1.0]<br/>class = Yes>, fillcolor="#399de5"] ;
103 -> 104 ;
105 [label=<node &#35;105<br/>gini = 0.0<br/>samples = 0.0%<br/>value = [1.0, 0.0]<br/>class = No>, fillcolor="#e58139"] ;
103 -> 105 ;
106 [label=<node &#35;106<br/>gini = 0.0<br/>samples = 0.8%<br/>value = [1.0, 0.0]<br/>class = No>, fillcolor="#e58139"] ;
86 -> 106 ;
107 [label=<node &#35;107<br/>marital_divorced &le; 0.5<br/>gini = 0.198<br/>samples = 0.1%<br/>value = [0.889, 0.111]<br/>class = No>, fillcolor="#e89152"] ;
85 -> 107 ;
108 [label=<node &#35;108<br/>gini = 0.0<br/>samples = 0.0%<br/>value = [0.0, 1.0]<br/>class = Yes>, fillcolor="#399de5"] ;
107 -> 108 ;
109 [label=<node &#35;109<br/>gini = 0.0<br/>samples = 0.1%<br/>value = [1.0, 0.0]<br/>class = No>, fillcolor="#e58139"] ;
107 -> 109 ;
110 [label=<node &#35;110<br/>recent_pdays &le; 0.003<br/>gini = 0.278<br/>samples = 0.1%<br/>value = [0.833, 0.167]<br/>class = No>, fillcolor="#ea9a61"] ;
84 -> 110 ;
111 [label=<node &#35;111<br/>gini = 0.0<br/>samples = 0.1%<br/>value = [1.0, 0.0]<br/>class = No>, fillcolor="#e58139"] ;
110 -> 111 ;
112 [label=<node &#35;112<br/>gini = 0.0<br/>samples = 0.0%<br/>value = [0.0, 1.0]<br/>class = Yes>, fillcolor="#399de5"] ;
110 -> 112 ;
113 [label=<node &#35;113<br/>poutcome_success &le; 0.5<br/>gini = 0.444<br/>samples = 0.0%<br/>value = [0.667, 0.333]<br/>class = No>, fillcolor="#f2c09c"] ;
83 -> 113 ;
114 [label=<node &#35;114<br/>gini = 0.0<br/>samples = 0.0%<br/>value = [0.0, 1.0]<br/>class = Yes>, fillcolor="#399de5"] ;
113 -> 114 ;
115 [label=<node &#35;115<br/>gini = 0.0<br/>samples = 0.0%<br/>value = [1.0, 0.0]<br/>class = No>, fillcolor="#e58139"] ;
113 -> 115 ;
116 [label=<node &#35;116<br/>balance &le; 139.0<br/>gini = 0.234<br/>samples = 5.0%<br/>value = [0.864, 0.136]<br/>class = No>, fillcolor="#e99558"] ;
78 -> 116 ;
117 [label=<node &#35;117<br/>gini = 0.0<br/>samples = 0.0%<br/>value = [0.0, 1.0]<br/>class = Yes>, fillcolor="#399de5"] ;
116 -> 117 ;
118 [label=<node &#35;118<br/>housing_cat &le; 0.5<br/>gini = 0.228<br/>samples = 5.0%<br/>value = [0.869, 0.131]<br/>class = No>, fillcolor="#e99457"] ;
116 -> 118 ;
119 [label=<node &#35;119<br/>campaign &le; 1.5<br/>gini = 0.298<br/>samples = 2.6%<br/>value = [0.818, 0.182]<br/>class = No>, fillcolor="#eb9d65"] ;
118 -> 119 ;
120 [label=<node &#35;120<br/>age &le; 45.5<br/>gini = 0.399<br/>samples = 0.9%<br/>value = [0.725, 0.275]<br/>class = No>, fillcolor="#efb184"] ;
119 -> 120 ;
121 [label=<node &#35;121<br/>recent_pdays &le; 0.002<br/>gini = 0.314<br/>samples = 0.5%<br/>value = [0.805, 0.195]<br/>class = No>, fillcolor="#eba069"] ;
120 -> 121 ;
122 [label=<node &#35;122<br/>duration &le; 103.5<br/>gini = 0.391<br/>samples = 0.4%<br/>value = [0.733, 0.267]<br/>class = No>, fillcolor="#eeaf81"] ;
121 -> 122 ;
123 [label=<node &#35;123<br/>balance &le; 171.5<br/>gini = 0.278<br/>samples = 0.3%<br/>value = [0.833, 0.167]<br/>class = No>, fillcolor="#ea9a61"] ;
122 -> 123 ;
124 [label=<node &#35;124<br/>gini = 0.0<br/>samples = 0.0%<br/>value = [0.0, 1.0]<br/>class = Yes>, fillcolor="#399de5"] ;
123 -> 124 ;
125 [label=<node &#35;125<br/>age &le; 32.5<br/>gini = 0.227<br/>samples = 0.3%<br/>value = [0.87, 0.13]<br/>class = No>, fillcolor="#e99457"] ;
123 -> 125 ;
126 [label=<node &#35;126<br/>duration &le; 90.5<br/>gini = 0.355<br/>samples = 0.2%<br/>value = [0.769, 0.231]<br/>class = No>, fillcolor="#eda774"] ;
125 -> 126 ;
127 [label=<node &#35;127<br/>duration &le; 81.5<br/>gini = 0.49<br/>samples = 0.1%<br/>value = [0.571, 0.429]<br/>class = No>, fillcolor="#f8e0ce"] ;
126 -> 127 ;
128 [label=<node &#35;128<br/>gini = 0.0<br/>samples = 0.0%<br/>value = [1.0, 0.0]<br/>class = No>, fillcolor="#e58139"] ;
127 -> 128 ;
129 [label=<node &#35;129<br/>balance &le; 502.5<br/>gini = 0.375<br/>samples = 0.1%<br/>value = [0.25, 0.75]<br/>class = Yes>, fillcolor="#7bbeee"] ;
127 -> 129 ;
130 [label=<node &#35;130<br/>gini = 0.0<br/>samples = 0.0%<br/>value = [1.0, 0.0]<br/>class = No>, fillcolor="#e58139"] ;
129 -> 130 ;
131 [label=<node &#35;131<br/>gini = 0.0<br/>samples = 0.0%<br/>value = [0.0, 1.0]<br/>class = Yes>, fillcolor="#399de5"] ;
129 -> 131 ;
132 [label=<node &#35;132<br/>gini = 0.0<br/>samples = 0.1%<br/>value = [1.0, 0.0]<br/>class = No>, fillcolor="#e58139"] ;
126 -> 132 ;
133 [label=<node &#35;133<br/>gini = 0.0<br/>samples = 0.1%<br/>value = [1.0, 0.0]<br/>class = No>, fillcolor="#e58139"] ;
125 -> 133 ;
134 [label=<node &#35;134<br/>balance &le; 2781.5<br/>gini = 0.444<br/>samples = 0.1%<br/>value = [0.333, 0.667]<br/>class = Yes>, fillcolor="#9ccef2"] ;
122 -> 134 ;
135 [label=<node &#35;135<br/>gini = 0.0<br/>samples = 0.1%<br/>value = [0.0, 1.0]<br/>class = Yes>, fillcolor="#399de5"] ;
134 -> 135 ;
136 [label=<node &#35;136<br/>gini = 0.0<br/>samples = 0.0%<br/>value = [1.0, 0.0]<br/>class = No>, fillcolor="#e58139"] ;
134 -> 136 ;
137 [label=<node &#35;137<br/>gini = 0.0<br/>samples = 0.1%<br/>value = [1.0, 0.0]<br/>class = No>, fillcolor="#e58139"] ;
121 -> 137 ;
138 [label=<node &#35;138<br/>job_entrepreneur &le; 0.5<br/>gini = 0.477<br/>samples = 0.4%<br/>value = [0.607, 0.393]<br/>class = No>, fillcolor="#f6d3b9"] ;
120 -> 138 ;
139 [label=<node &#35;139<br/>age &le; 58.5<br/>gini = 0.494<br/>samples = 0.2%<br/>value = [0.444, 0.556]<br/>class = Yes>, fillcolor="#d7ebfa"] ;
138 -> 139 ;
140 [label=<node &#35;140<br/>duration &le; 82.0<br/>gini = 0.498<br/>samples = 0.2%<br/>value = [0.533, 0.467]<br/>class = No>, fillcolor="#fcefe6"] ;
139 -> 140 ;
141 [label=<node &#35;141<br/>gini = 0.0<br/>samples = 0.0%<br/>value = [0.0, 1.0]<br/>class = Yes>, fillcolor="#399de5"] ;
140 -> 141 ;
142 [label=<node &#35;142<br/>age &le; 53.5<br/>gini = 0.444<br/>samples = 0.2%<br/>value = [0.667, 0.333]<br/>class = No>, fillcolor="#f2c09c"] ;
140 -> 142 ;
143 [label=<node &#35;143<br/>duration &le; 91.0<br/>gini = 0.49<br/>samples = 0.1%<br/>value = [0.429, 0.571]<br/>class = Yes>, fillcolor="#cee6f8"] ;
142 -> 143 ;
144 [label=<node &#35;144<br/>gini = 0.0<br/>samples = 0.0%<br/>value = [0.0, 1.0]<br/>class = Yes>, fillcolor="#399de5"] ;
143 -> 144 ;
145 [label=<node &#35;145<br/>balance &le; 2440.5<br/>gini = 0.48<br/>samples = 0.1%<br/>value = [0.6, 0.4]<br/>class = No>, fillcolor="#f6d5bd"] ;
143 -> 145 ;
146 [label=<node &#35;146<br/>duration &le; 96.5<br/>gini = 0.444<br/>samples = 0.0%<br/>value = [0.333, 0.667]<br/>class = Yes>, fillcolor="#9ccef2"] ;
145 -> 146 ;
147 [label=<node &#35;147<br/>gini = 0.0<br/>samples = 0.0%<br/>value = [1.0, 0.0]<br/>class = No>, fillcolor="#e58139"] ;
146 -> 147 ;
148 [label=<node &#35;148<br/>gini = 0.0<br/>samples = 0.0%<br/>value = [0.0, 1.0]<br/>class = Yes>, fillcolor="#399de5"] ;
146 -> 148 ;
149 [label=<node &#35;149<br/>gini = 0.0<br/>samples = 0.0%<br/>value = [1.0, 0.0]<br/>class = No>, fillcolor="#e58139"] ;
145 -> 149 ;
150 [label=<node &#35;150<br/>gini = 0.0<br/>samples = 0.1%<br/>value = [1.0, 0.0]<br/>class = No>, fillcolor="#e58139"] ;
142 -> 150 ;
151 [label=<node &#35;151<br/>gini = 0.0<br/>samples = 0.0%<br/>value = [0.0, 1.0]<br/>class = Yes>, fillcolor="#399de5"] ;
139 -> 151 ;
152 [label=<node &#35;152<br/>recent_pdays &le; 0.005<br/>gini = 0.18<br/>samples = 0.1%<br/>value = [0.9, 0.1]<br/>class = No>, fillcolor="#e88f4f"] ;
138 -> 152 ;
153 [label=<node &#35;153<br/>gini = 0.0<br/>samples = 0.1%<br/>value = [1.0, 0.0]<br/>class = No>, fillcolor="#e58139"] ;
152 -> 153 ;
154 [label=<node &#35;154<br/>education_unknown &le; 0.5<br/>gini = 0.5<br/>samples = 0.0%<br/>value = [0.5, 0.5]<br/>class = No>, fillcolor="#ffffff"] ;
152 -> 154 ;
155 [label=<node &#35;155<br/>gini = 0.0<br/>samples = 0.0%<br/>value = [0.0, 1.0]<br/>class = Yes>, fillcolor="#399de5"] ;
154 -> 155 ;
156 [label=<node &#35;156<br/>gini = 0.0<br/>samples = 0.0%<br/>value = [1.0, 0.0]<br/>class = No>, fillcolor="#e58139"] ;
154 -> 156 ;
157 [label=<node &#35;157<br/>marital_divorced &le; 0.5<br/>gini = 0.233<br/>samples = 1.7%<br/>value = [0.866, 0.134]<br/>class = No>, fillcolor="#e99558"] ;
119 -> 157 ;
158 [label=<node &#35;158<br/>age &le; 35.0<br/>gini = 0.402<br/>samples = 0.6%<br/>value = [0.721, 0.279]<br/>class = No>, fillcolor="#efb286"] ;
157 -> 158 ;
159 [label=<node &#35;159<br/>loan_cat &le; 0.5<br/>gini = 0.495<br/>samples = 0.3%<br/>value = [0.55, 0.45]<br/>class = No>, fillcolor="#fae8db"] ;
158 -> 159 ;
160 [label=<node &#35;160<br/>education_tertiary &le; 0.5<br/>gini = 0.5<br/>samples = 0.2%<br/>value = [0.5, 0.5]<br/>class = No>, fillcolor="#ffffff"] ;
159 -> 160 ;
161 [label=<node &#35;161<br/>duration &le; 110.5<br/>gini = 0.492<br/>samples = 0.2%<br/>value = [0.438, 0.562]<br/>class = Yes>, fillcolor="#d3e9f9"] ;
160 -> 161 ;
162 [label=<node &#35;162<br/>duration &le; 106.0<br/>gini = 0.459<br/>samples = 0.2%<br/>value = [0.357, 0.643]<br/>class = Yes>, fillcolor="#a7d3f3"] ;
161 -> 162 ;
163 [label=<node &#35;163<br/>age &le; 32.5<br/>gini = 0.5<br/>samples = 0.1%<br/>value = [0.5, 0.5]<br/>class = No>, fillcolor="#ffffff"] ;
162 -> 163 ;
164 [label=<node &#35;164<br/>duration &le; 94.5<br/>gini = 0.469<br/>samples = 0.1%<br/>value = [0.625, 0.375]<br/>class = No>, fillcolor="#f5cdb0"] ;
163 -> 164 ;
165 [label=<node &#35;165<br/>duration &le; 86.5<br/>gini = 0.48<br/>samples = 0.1%<br/>value = [0.4, 0.6]<br/>class = Yes>, fillcolor="#bddef6"] ;
164 -> 165 ;
166 [label=<node &#35;166<br/>gini = 0.0<br/>samples = 0.0%<br/>value = [1.0, 0.0]<br/>class = No>, fillcolor="#e58139"] ;
165 -> 166 ;
167 [label=<node &#35;167<br/>gini = 0.0<br/>samples = 0.0%<br/>value = [0.0, 1.0]<br/>class = Yes>, fillcolor="#399de5"] ;
165 -> 167 ;
168 [label=<node &#35;168<br/>gini = 0.0<br/>samples = 0.0%<br/>value = [1.0, 0.0]<br/>class = No>, fillcolor="#e58139"] ;
164 -> 168 ;
169 [label=<node &#35;169<br/>gini = 0.0<br/>samples = 0.0%<br/>value = [0.0, 1.0]<br/>class = Yes>, fillcolor="#399de5"] ;
163 -> 169 ;
170 [label=<node &#35;170<br/>gini = 0.0<br/>samples = 0.1%<br/>value = [0.0, 1.0]<br/>class = Yes>, fillcolor="#399de5"] ;
162 -> 170 ;
171 [label=<node &#35;171<br/>gini = 0.0<br/>samples = 0.0%<br/>value = [1.0, 0.0]<br/>class = No>, fillcolor="#e58139"] ;
161 -> 171 ;
172 [label=<node &#35;172<br/>gini = 0.0<br/>samples = 0.0%<br/>value = [1.0, 0.0]<br/>class = No>, fillcolor="#e58139"] ;
160 -> 172 ;
173 [label=<node &#35;173<br/>gini = 0.0<br/>samples = 0.0%<br/>value = [1.0, 0.0]<br/>class = No>, fillcolor="#e58139"] ;
159 -> 173 ;
174 [label=<node &#35;174<br/>duration &le; 80.5<br/>gini = 0.227<br/>samples = 0.3%<br/>value = [0.87, 0.13]<br/>class = No>, fillcolor="#e99457"] ;
158 -> 174 ;
175 [label=<node &#35;175<br/>gini = 0.0<br/>samples = 0.0%<br/>value = [0.0, 1.0]<br/>class = Yes>, fillcolor="#399de5"] ;
174 -> 175 ;
176 [label=<node &#35;176<br/>age &le; 41.5<br/>gini = 0.165<br/>samples = 0.3%<br/>value = [0.909, 0.091]<br/>class = No>, fillcolor="#e88e4d"] ;
174 -> 176 ;
177 [label=<node &#35;177<br/>job_self-employed &le; 0.5<br/>gini = 0.375<br/>samples = 0.1%<br/>value = [0.75, 0.25]<br/>class = No>, fillcolor="#eeab7b"] ;
176 -> 177 ;
178 [label=<node &#35;178<br/>age &le; 40.0<br/>gini = 0.245<br/>samples = 0.1%<br/>value = [0.857, 0.143]<br/>class = No>, fillcolor="#e9965a"] ;
177 -> 178 ;
179 [label=<node &#35;179<br/>gini = 0.0<br/>samples = 0.1%<br/>value = [1.0, 0.0]<br/>class = No>, fillcolor="#e58139"] ;
178 -> 179 ;
180 [label=<node &#35;180<br/>education_unknown &le; 0.5<br/>gini = 0.5<br/>samples = 0.0%<br/>value = [0.5, 0.5]<br/>class = No>, fillcolor="#ffffff"] ;
178 -> 180 ;
181 [label=<node &#35;181<br/>gini = 0.0<br/>samples = 0.0%<br/>value = [1.0, 0.0]<br/>class = No>, fillcolor="#e58139"] ;
180 -> 181 ;
182 [label=<node &#35;182<br/>gini = 0.0<br/>samples = 0.0%<br/>value = [0.0, 1.0]<br/>class = Yes>, fillcolor="#399de5"] ;
180 -> 182 ;
183 [label=<node &#35;183<br/>gini = 0.0<br/>samples = 0.0%<br/>value = [0.0, 1.0]<br/>class = Yes>, fillcolor="#399de5"] ;
177 -> 183 ;
184 [label=<node &#35;184<br/>gini = 0.0<br/>samples = 0.2%<br/>value = [1.0, 0.0]<br/>class = No>, fillcolor="#e58139"] ;
176 -> 184 ;
185 [label=<node &#35;185<br/>duration &le; 78.5<br/>gini = 0.123<br/>samples = 1.2%<br/>value = [0.934, 0.066]<br/>class = No>, fillcolor="#e78a47"] ;
157 -> 185 ;
186 [label=<node &#35;186<br/>education_secondary &le; 0.5<br/>gini = 0.444<br/>samples = 0.0%<br/>value = [0.333, 0.667]<br/>class = Yes>, fillcolor="#9ccef2"] ;
185 -> 186 ;
187 [label=<node &#35;187<br/>gini = 0.0<br/>samples = 0.0%<br/>value = [1.0, 0.0]<br/>class = No>, fillcolor="#e58139"] ;
186 -> 187 ;
188 [label=<node &#35;188<br/>gini = 0.0<br/>samples = 0.0%<br/>value = [0.0, 1.0]<br/>class = Yes>, fillcolor="#399de5"] ;
186 -> 188 ;
189 [label=<node &#35;189<br/>age &le; 59.5<br/>gini = 0.087<br/>samples = 1.1%<br/>value = [0.955, 0.045]<br/>class = No>, fillcolor="#e68742"] ;
185 -> 189 ;
190 [label=<node &#35;190<br/>duration &le; 93.5<br/>gini = 0.069<br/>samples = 1.1%<br/>value = [0.964, 0.036]<br/>class = No>, fillcolor="#e68640"] ;
189 -> 190 ;
191 [label=<node &#35;191<br/>gini = 0.0<br/>samples = 0.5%<br/>value = [1.0, 0.0]<br/>class = No>, fillcolor="#e58139"] ;
190 -> 191 ;
192 [label=<node &#35;192<br/>duration &le; 95.0<br/>gini = 0.127<br/>samples = 0.6%<br/>value = [0.932, 0.068]<br/>class = No>, fillcolor="#e78a47"] ;
190 -> 192 ;
193 [label=<node &#35;193<br/>age &le; 42.0<br/>gini = 0.5<br/>samples = 0.1%<br/>value = [0.5, 0.5]<br/>class = No>, fillcolor="#ffffff"] ;
192 -> 193 ;
194 [label=<node &#35;194<br/>gini = 0.0<br/>samples = 0.0%<br/>value = [1.0, 0.0]<br/>class = No>, fillcolor="#e58139"] ;
193 -> 194 ;
195 [label=<node &#35;195<br/>gini = 0.0<br/>samples = 0.0%<br/>value = [0.0, 1.0]<br/>class = Yes>, fillcolor="#399de5"] ;
193 -> 195 ;
196 [label=<node &#35;196<br/>job_self-employed &le; 0.5<br/>gini = 0.049<br/>samples = 0.5%<br/>value = [0.975, 0.025]<br/>class = No>, fillcolor="#e6843e"] ;
192 -> 196 ;
197 [label=<node &#35;197<br/>gini = 0.0<br/>samples = 0.5%<br/>value = [1.0, 0.0]<br/>class = No>, fillcolor="#e58139"] ;
196 -> 197 ;
198 [label=<node &#35;198<br/>age &le; 38.0<br/>gini = 0.444<br/>samples = 0.0%<br/>value = [0.667, 0.333]<br/>class = No>, fillcolor="#f2c09c"] ;
196 -> 198 ;
199 [label=<node &#35;199<br/>gini = 0.0<br/>samples = 0.0%<br/>value = [1.0, 0.0]<br/>class = No>, fillcolor="#e58139"] ;
198 -> 199 ;
200 [label=<node &#35;200<br/>gini = 0.0<br/>samples = 0.0%<br/>value = [0.0, 1.0]<br/>class = Yes>, fillcolor="#399de5"] ;
198 -> 200 ;
201 [label=<node &#35;201<br/>recent_pdays &le; 0.001<br/>gini = 0.375<br/>samples = 0.1%<br/>value = [0.75, 0.25]<br/>class = No>, fillcolor="#eeab7b"] ;
189 -> 201 ;
202 [label=<node &#35;202<br/>gini = 0.0<br/>samples = 0.0%<br/>value = [1.0, 0.0]<br/>class = No>, fillcolor="#e58139"] ;
201 -> 202 ;
203 [label=<node &#35;203<br/>gini = 0.0<br/>samples = 0.0%<br/>value = [0.0, 1.0]<br/>class = Yes>, fillcolor="#399de5"] ;
201 -> 203 ;
204 [label=<node &#35;204<br/>recent_pdays &le; 0.01<br/>gini = 0.139<br/>samples = 2.4%<br/>value = [0.925, 0.075]<br/>class = No>, fillcolor="#e78b49"] ;
118 -> 204 ;
205 [label=<node &#35;205<br/>education_secondary &le; 0.5<br/>gini = 0.123<br/>samples = 2.3%<br/>value = [0.934, 0.066]<br/>class = No>, fillcolor="#e78a47"] ;
204 -> 205 ;
206 [label=<node &#35;206<br/>recent_pdays &le; 0.004<br/>gini = 0.07<br/>samples = 1.8%<br/>value = [0.964, 0.036]<br/>class = No>, fillcolor="#e68640"] ;
205 -> 206 ;
207 [label=<node &#35;207<br/>job_blue-collar &le; 0.5<br/>gini = 0.047<br/>samples = 1.6%<br/>value = [0.976, 0.024]<br/>class = No>, fillcolor="#e6843e"] ;
206 -> 207 ;
208 [label=<node &#35;208<br/>job_technician &le; 0.5<br/>gini = 0.033<br/>samples = 1.5%<br/>value = [0.983, 0.017]<br/>class = No>, fillcolor="#e5833c"] ;
207 -> 208 ;
209 [label=<node &#35;209<br/>gini = 0.0<br/>samples = 1.2%<br/>value = [1.0, 0.0]<br/>class = No>, fillcolor="#e58139"] ;
208 -> 209 ;
210 [label=<node &#35;210<br/>campaign &le; 7.0<br/>gini = 0.159<br/>samples = 0.3%<br/>value = [0.913, 0.087]<br/>class = No>, fillcolor="#e78d4c"] ;
208 -> 210 ;
211 [label=<node &#35;211<br/>balance &le; 308.5<br/>gini = 0.087<br/>samples = 0.3%<br/>value = [0.955, 0.045]<br/>class = No>, fillcolor="#e68742"] ;
210 -> 211 ;
212 [label=<node &#35;212<br/>balance &le; 261.5<br/>gini = 0.444<br/>samples = 0.0%<br/>value = [0.667, 0.333]<br/>class = No>, fillcolor="#f2c09c"] ;
211 -> 212 ;
213 [label=<node &#35;213<br/>gini = 0.0<br/>samples = 0.0%<br/>value = [1.0, 0.0]<br/>class = No>, fillcolor="#e58139"] ;
212 -> 213 ;
214 [label=<node &#35;214<br/>gini = 0.0<br/>samples = 0.0%<br/>value = [0.0, 1.0]<br/>class = Yes>, fillcolor="#399de5"] ;
212 -> 214 ;
215 [label=<node &#35;215<br/>gini = 0.0<br/>samples = 0.2%<br/>value = [1.0, 0.0]<br/>class = No>, fillcolor="#e58139"] ;
211 -> 215 ;
216 [label=<node &#35;216<br/>gini = 0.0<br/>samples = 0.0%<br/>value = [0.0, 1.0]<br/>class = Yes>, fillcolor="#399de5"] ;
210 -> 216 ;
217 [label=<node &#35;217<br/>age &le; 39.0<br/>gini = 0.375<br/>samples = 0.1%<br/>value = [0.75, 0.25]<br/>class = No>, fillcolor="#eeab7b"] ;
207 -> 217 ;
218 [label=<node &#35;218<br/>gini = 0.0<br/>samples = 0.0%<br/>value = [0.0, 1.0]<br/>class = Yes>, fillcolor="#399de5"] ;
217 -> 218 ;
219 [label=<node &#35;219<br/>gini = 0.0<br/>samples = 0.0%<br/>value = [1.0, 0.0]<br/>class = No>, fillcolor="#e58139"] ;
217 -> 219 ;
220 [label=<node &#35;220<br/>balance &le; 650.5<br/>gini = 0.26<br/>samples = 0.2%<br/>value = [0.846, 0.154]<br/>class = No>, fillcolor="#ea985d"] ;
206 -> 220 ;
221 [label=<node &#35;221<br/>balance &le; 265.0<br/>gini = 0.444<br/>samples = 0.0%<br/>value = [0.333, 0.667]<br/>class = Yes>, fillcolor="#9ccef2"] ;
220 -> 221 ;
222 [label=<node &#35;222<br/>gini = 0.0<br/>samples = 0.0%<br/>value = [1.0, 0.0]<br/>class = No>, fillcolor="#e58139"] ;
221 -> 222 ;
223 [label=<node &#35;223<br/>gini = 0.0<br/>samples = 0.0%<br/>value = [0.0, 1.0]<br/>class = Yes>, fillcolor="#399de5"] ;
221 -> 223 ;
224 [label=<node &#35;224<br/>gini = 0.0<br/>samples = 0.1%<br/>value = [1.0, 0.0]<br/>class = No>, fillcolor="#e58139"] ;
220 -> 224 ;
225 [label=<node &#35;225<br/>campaign &le; 1.5<br/>gini = 0.258<br/>samples = 0.6%<br/>value = [0.848, 0.152]<br/>class = No>, fillcolor="#ea985d"] ;
205 -> 225 ;
226 [label=<node &#35;226<br/>balance &le; 1167.5<br/>gini = 0.397<br/>samples = 0.3%<br/>value = [0.727, 0.273]<br/>class = No>, fillcolor="#efb083"] ;
225 -> 226 ;
227 [label=<node &#35;227<br/>balance &le; 479.0<br/>gini = 0.49<br/>samples = 0.2%<br/>value = [0.571, 0.429]<br/>class = No>, fillcolor="#f8e0ce"] ;
226 -> 227 ;
228 [label=<node &#35;228<br/>gini = 0.0<br/>samples = 0.1%<br/>value = [1.0, 0.0]<br/>class = No>, fillcolor="#e58139"] ;
227 -> 228 ;
229 [label=<node &#35;229<br/>age &le; 44.5<br/>gini = 0.48<br/>samples = 0.1%<br/>value = [0.4, 0.6]<br/>class = Yes>, fillcolor="#bddef6"] ;
227 -> 229 ;
230 [label=<node &#35;230<br/>previous &le; 1.0<br/>gini = 0.375<br/>samples = 0.1%<br/>value = [0.25, 0.75]<br/>class = Yes>, fillcolor="#7bbeee"] ;
229 -> 230 ;
231 [label=<node &#35;231<br/>gini = 0.0<br/>samples = 0.1%<br/>value = [0.0, 1.0]<br/>class = Yes>, fillcolor="#399de5"] ;
230 -> 231 ;
232 [label=<node &#35;232<br/>gini = 0.0<br/>samples = 0.0%<br/>value = [1.0, 0.0]<br/>class = No>, fillcolor="#e58139"] ;
230 -> 232 ;
233 [label=<node &#35;233<br/>gini = 0.0<br/>samples = 0.0%<br/>value = [1.0, 0.0]<br/>class = No>, fillcolor="#e58139"] ;
229 -> 233 ;
234 [label=<node &#35;234<br/>gini = 0.0<br/>samples = 0.1%<br/>value = [1.0, 0.0]<br/>class = No>, fillcolor="#e58139"] ;
226 -> 234 ;
235 [label=<node &#35;235<br/>duration &le; 81.0<br/>gini = 0.08<br/>samples = 0.3%<br/>value = [0.958, 0.042]<br/>class = No>, fillcolor="#e68642"] ;
225 -> 235 ;
236 [label=<node &#35;236<br/>balance &le; 2228.5<br/>gini = 0.5<br/>samples = 0.0%<br/>value = [0.5, 0.5]<br/>class = No>, fillcolor="#ffffff"] ;
235 -> 236 ;
237 [label=<node &#35;237<br/>gini = 0.0<br/>samples = 0.0%<br/>value = [0.0, 1.0]<br/>class = Yes>, fillcolor="#399de5"] ;
236 -> 237 ;
238 [label=<node &#35;238<br/>gini = 0.0<br/>samples = 0.0%<br/>value = [1.0, 0.0]<br/>class = No>, fillcolor="#e58139"] ;
236 -> 238 ;
239 [label=<node &#35;239<br/>gini = 0.0<br/>samples = 0.3%<br/>value = [1.0, 0.0]<br/>class = No>, fillcolor="#e58139"] ;
235 -> 239 ;
240 [label=<node &#35;240<br/>duration &le; 104.0<br/>gini = 0.444<br/>samples = 0.0%<br/>value = [0.333, 0.667]<br/>class = Yes>, fillcolor="#9ccef2"] ;
204 -> 240 ;
241 [label=<node &#35;241<br/>gini = 0.0<br/>samples = 0.0%<br/>value = [0.0, 1.0]<br/>class = Yes>, fillcolor="#399de5"] ;
240 -> 241 ;
242 [label=<node &#35;242<br/>gini = 0.0<br/>samples = 0.0%<br/>value = [1.0, 0.0]<br/>class = No>, fillcolor="#e58139"] ;
240 -> 242 ;
243 [label=<node &#35;243<br/>age &le; 77.0<br/>gini = 0.48<br/>samples = 0.1%<br/>value = [0.4, 0.6]<br/>class = Yes>, fillcolor="#bddef6"] ;
77 -> 243 ;
244 [label=<node &#35;244<br/>duration &le; 109.5<br/>gini = 0.245<br/>samples = 0.1%<br/>value = [0.143, 0.857]<br/>class = Yes>, fillcolor="#5aade9"] ;
243 -> 244 ;
245 [label=<node &#35;245<br/>gini = 0.0<br/>samples = 0.1%<br/>value = [0.0, 1.0]<br/>class = Yes>, fillcolor="#399de5"] ;
244 -> 245 ;
246 [label=<node &#35;246<br/>gini = 0.0<br/>samples = 0.0%<br/>value = [1.0, 0.0]<br/>class = No>, fillcolor="#e58139"] ;
244 -> 246 ;
247 [label=<node &#35;247<br/>gini = 0.0<br/>samples = 0.0%<br/>value = [1.0, 0.0]<br/>class = No>, fillcolor="#e58139"] ;
243 -> 247 ;
248 [label=<node &#35;248<br/>housing_cat &le; 0.5<br/>gini = 0.373<br/>samples = 19.7%<br/>value = [0.752, 0.248]<br/>class = No>, fillcolor="#eeaa7a"] ;
2 -> 248 ;
249 [label=<node &#35;249<br/>balance &le; 229.5<br/>gini = 0.465<br/>samples = 10.2%<br/>value = [0.633, 0.367]<br/>class = No>, fillcolor="#f4caac"] ;
248 -> 249 ;
250 [label=<node &#35;250<br/>age &le; 26.5<br/>gini = 0.315<br/>samples = 3.5%<br/>value = [0.804, 0.196]<br/>class = No>, fillcolor="#eba069"] ;
249 -> 250 ;
251 [label=<node &#35;251<br/>marital_married &le; 0.5<br/>gini = 0.408<br/>samples = 0.3%<br/>value = [0.286, 0.714]<br/>class = Yes>, fillcolor="#88c4ef"] ;
250 -> 251 ;
252 [label=<node &#35;252<br/>gini = 0.0<br/>samples = 0.0%<br/>value = [1.0, 0.0]<br/>class = No>, fillcolor="#e58139"] ;
251 -> 252 ;
253 [label=<node &#35;253<br/>balance &le; 169.5<br/>gini = 0.332<br/>samples = 0.2%<br/>value = [0.211, 0.789]<br/>class = Yes>, fillcolor="#6eb7ec"] ;
251 -> 253 ;
254 [label=<node &#35;254<br/>previous &le; 4.0<br/>gini = 0.219<br/>samples = 0.2%<br/>value = [0.125, 0.875]<br/>class = Yes>, fillcolor="#55abe9"] ;
253 -> 254 ;
255 [label=<node &#35;255<br/>balance &le; 8.5<br/>gini = 0.124<br/>samples = 0.2%<br/>value = [0.067, 0.933]<br/>class = Yes>, fillcolor="#47a4e7"] ;
254 -> 255 ;
256 [label=<node &#35;256<br/>balance &le; 4.0<br/>gini = 0.375<br/>samples = 0.1%<br/>value = [0.25, 0.75]<br/>class = Yes>, fillcolor="#7bbeee"] ;
255 -> 256 ;
257 [label=<node &#35;257<br/>gini = 0.0<br/>samples = 0.0%<br/>value = [0.0, 1.0]<br/>class = Yes>, fillcolor="#399de5"] ;
256 -> 257 ;
258 [label=<node &#35;258<br/>gini = 0.0<br/>samples = 0.0%<br/>value = [1.0, 0.0]<br/>class = No>, fillcolor="#e58139"] ;
256 -> 258 ;
259 [label=<node &#35;259<br/>gini = 0.0<br/>samples = 0.1%<br/>value = [0.0, 1.0]<br/>class = Yes>, fillcolor="#399de5"] ;
255 -> 259 ;
260 [label=<node &#35;260<br/>gini = 0.0<br/>samples = 0.0%<br/>value = [1.0, 0.0]<br/>class = No>, fillcolor="#e58139"] ;
254 -> 260 ;
261 [label=<node &#35;261<br/>job_self-employed &le; 0.5<br/>gini = 0.444<br/>samples = 0.0%<br/>value = [0.667, 0.333]<br/>class = No>, fillcolor="#f2c09c"] ;
253 -> 261 ;
262 [label=<node &#35;262<br/>gini = 0.0<br/>samples = 0.0%<br/>value = [1.0, 0.0]<br/>class = No>, fillcolor="#e58139"] ;
261 -> 262 ;
263 [label=<node &#35;263<br/>gini = 0.0<br/>samples = 0.0%<br/>value = [0.0, 1.0]<br/>class = Yes>, fillcolor="#399de5"] ;
261 -> 263 ;
264 [label=<node &#35;264<br/>campaign &le; 1.5<br/>gini = 0.258<br/>samples = 3.2%<br/>value = [0.848, 0.152]<br/>class = No>, fillcolor="#ea985c"] ;
250 -> 264 ;
265 [label=<node &#35;265<br/>marital_divorced &le; 0.5<br/>gini = 0.38<br/>samples = 1.2%<br/>value = [0.744, 0.256]<br/>class = No>, fillcolor="#eeac7d"] ;
264 -> 265 ;
266 [label=<node &#35;266<br/>duration &le; 148.0<br/>gini = 0.482<br/>samples = 0.5%<br/>value = [0.595, 0.405]<br/>class = No>, fillcolor="#f7d7c0"] ;
265 -> 266 ;
267 [label=<node &#35;267<br/>duration &le; 123.0<br/>gini = 0.388<br/>samples = 0.2%<br/>value = [0.737, 0.263]<br/>class = No>, fillcolor="#eeae80"] ;
266 -> 267 ;
268 [label=<node &#35;268<br/>balance &le; 66.0<br/>gini = 0.48<br/>samples = 0.1%<br/>value = [0.4, 0.6]<br/>class = Yes>, fillcolor="#bddef6"] ;
267 -> 268 ;
269 [label=<node &#35;269<br/>marital_single &le; 0.5<br/>gini = 0.444<br/>samples = 0.0%<br/>value = [0.667, 0.333]<br/>class = No>, fillcolor="#f2c09c"] ;
268 -> 269 ;
270 [label=<node &#35;270<br/>gini = 0.0<br/>samples = 0.0%<br/>value = [1.0, 0.0]<br/>class = No>, fillcolor="#e58139"] ;
269 -> 270 ;
271 [label=<node &#35;271<br/>gini = 0.0<br/>samples = 0.0%<br/>value = [0.0, 1.0]<br/>class = Yes>, fillcolor="#399de5"] ;
269 -> 271 ;
272 [label=<node &#35;272<br/>gini = 0.0<br/>samples = 0.0%<br/>value = [0.0, 1.0]<br/>class = Yes>, fillcolor="#399de5"] ;
268 -> 272 ;
273 [label=<node &#35;273<br/>job_self-employed &le; 0.5<br/>gini = 0.245<br/>samples = 0.2%<br/>value = [0.857, 0.143]<br/>class = No>, fillcolor="#e9965a"] ;
267 -> 273 ;
274 [label=<node &#35;274<br/>duration &le; 134.0<br/>gini = 0.153<br/>samples = 0.2%<br/>value = [0.917, 0.083]<br/>class = No>, fillcolor="#e78c4b"] ;
273 -> 274 ;
275 [label=<node &#35;275<br/>job_white-collar &le; 0.5<br/>gini = 0.444<br/>samples = 0.0%<br/>value = [0.667, 0.333]<br/>class = No>, fillcolor="#f2c09c"] ;
274 -> 275 ;
276 [label=<node &#35;276<br/>gini = 0.0<br/>samples = 0.0%<br/>value = [0.0, 1.0]<br/>class = Yes>, fillcolor="#399de5"] ;
275 -> 276 ;
277 [label=<node &#35;277<br/>gini = 0.0<br/>samples = 0.0%<br/>value = [1.0, 0.0]<br/>class = No>, fillcolor="#e58139"] ;
275 -> 277 ;
278 [label=<node &#35;278<br/>gini = 0.0<br/>samples = 0.1%<br/>value = [1.0, 0.0]<br/>class = No>, fillcolor="#e58139"] ;
274 -> 278 ;
279 [label=<node &#35;279<br/>marital_married &le; 0.5<br/>gini = 0.5<br/>samples = 0.0%<br/>value = [0.5, 0.5]<br/>class = No>, fillcolor="#ffffff"] ;
273 -> 279 ;
280 [label=<node &#35;280<br/>gini = 0.0<br/>samples = 0.0%<br/>value = [1.0, 0.0]<br/>class = No>, fillcolor="#e58139"] ;
279 -> 280 ;
281 [label=<node &#35;281<br/>gini = 0.0<br/>samples = 0.0%<br/>value = [0.0, 1.0]<br/>class = Yes>, fillcolor="#399de5"] ;
279 -> 281 ;
282 [label=<node &#35;282<br/>duration &le; 189.0<br/>gini = 0.494<br/>samples = 0.2%<br/>value = [0.444, 0.556]<br/>class = Yes>, fillcolor="#d7ebfa"] ;
266 -> 282 ;
283 [label=<node &#35;283<br/>loan_cat &le; 0.5<br/>gini = 0.444<br/>samples = 0.2%<br/>value = [0.333, 0.667]<br/>class = Yes>, fillcolor="#9ccef2"] ;
282 -> 283 ;
284 [label=<node &#35;284<br/>balance &le; 100.0<br/>gini = 0.408<br/>samples = 0.2%<br/>value = [0.286, 0.714]<br/>class = Yes>, fillcolor="#88c4ef"] ;
283 -> 284 ;
285 [label=<node &#35;285<br/>job_technician &le; 0.5<br/>gini = 0.494<br/>samples = 0.1%<br/>value = [0.444, 0.556]<br/>class = Yes>, fillcolor="#d7ebfa"] ;
284 -> 285 ;
286 [label=<node &#35;286<br/>balance &le; 66.5<br/>gini = 0.408<br/>samples = 0.1%<br/>value = [0.286, 0.714]<br/>class = Yes>, fillcolor="#88c4ef"] ;
285 -> 286 ;
287 [label=<node &#35;287<br/>age &le; 27.5<br/>gini = 0.278<br/>samples = 0.1%<br/>value = [0.167, 0.833]<br/>class = Yes>, fillcolor="#61b1ea"] ;
286 -> 287 ;
288 [label=<node &#35;288<br/>gini = 0.0<br/>samples = 0.0%<br/>value = [1.0, 0.0]<br/>class = No>, fillcolor="#e58139"] ;
287 -> 288 ;
289 [label=<node &#35;289<br/>gini = 0.0<br/>samples = 0.1%<br/>value = [0.0, 1.0]<br/>class = Yes>, fillcolor="#399de5"] ;
287 -> 289 ;
290 [label=<node &#35;290<br/>gini = 0.0<br/>samples = 0.0%<br/>value = [1.0, 0.0]<br/>class = No>, fillcolor="#e58139"] ;
286 -> 290 ;
291 [label=<node &#35;291<br/>gini = 0.0<br/>samples = 0.0%<br/>value = [1.0, 0.0]<br/>class = No>, fillcolor="#e58139"] ;
285 -> 291 ;
292 [label=<node &#35;292<br/>gini = 0.0<br/>samples = 0.1%<br/>value = [0.0, 1.0]<br/>class = Yes>, fillcolor="#399de5"] ;
284 -> 292 ;
293 [label=<node &#35;293<br/>gini = 0.0<br/>samples = 0.0%<br/>value = [1.0, 0.0]<br/>class = No>, fillcolor="#e58139"] ;
283 -> 293 ;
294 [label=<node &#35;294<br/>gini = 0.0<br/>samples = 0.0%<br/>value = [1.0, 0.0]<br/>class = No>, fillcolor="#e58139"] ;
282 -> 294 ;
295 [label=<node &#35;295<br/>job_self-employed &le; 0.5<br/>gini = 0.256<br/>samples = 0.7%<br/>value = [0.849, 0.151]<br/>class = No>, fillcolor="#ea975c"] ;
265 -> 295 ;
296 [label=<node &#35;296<br/>age &le; 28.0<br/>gini = 0.19<br/>samples = 0.6%<br/>value = [0.894, 0.106]<br/>class = No>, fillcolor="#e89051"] ;
295 -> 296 ;
297 [label=<node &#35;297<br/>gini = 0.0<br/>samples = 0.0%<br/>value = [0.0, 1.0]<br/>class = Yes>, fillcolor="#399de5"] ;
296 -> 297 ;
298 [label=<node &#35;298<br/>duration &le; 150.0<br/>gini = 0.159<br/>samples = 0.6%<br/>value = [0.913, 0.087]<br/>class = No>, fillcolor="#e78d4c"] ;
296 -> 298 ;
299 [label=<node &#35;299<br/>duration &le; 145.5<br/>gini = 0.32<br/>samples = 0.3%<br/>value = [0.8, 0.2]<br/>class = No>, fillcolor="#eca06a"] ;
298 -> 299 ;
300 [label=<node &#35;300<br/>balance &le; 193.0<br/>gini = 0.111<br/>samples = 0.2%<br/>value = [0.941, 0.059]<br/>class = No>, fillcolor="#e78945"] ;
299 -> 300 ;
301 [label=<node &#35;301<br/>gini = 0.0<br/>samples = 0.2%<br/>value = [1.0, 0.0]<br/>class = No>, fillcolor="#e58139"] ;
300 -> 301 ;
302 [label=<node &#35;302<br/>gini = 0.0<br/>samples = 0.0%<br/>value = [0.0, 1.0]<br/>class = Yes>, fillcolor="#399de5"] ;
300 -> 302 ;
303 [label=<node &#35;303<br/>gini = 0.0<br/>samples = 0.0%<br/>value = [0.0, 1.0]<br/>class = Yes>, fillcolor="#399de5"] ;
299 -> 303 ;
304 [label=<node &#35;304<br/>gini = 0.0<br/>samples = 0.3%<br/>value = [1.0, 0.0]<br/>class = No>, fillcolor="#e58139"] ;
298 -> 304 ;
305 [label=<node &#35;305<br/>recent_pdays &le; 0.002<br/>gini = 0.5<br/>samples = 0.1%<br/>value = [0.5, 0.5]<br/>class = No>, fillcolor="#ffffff"] ;
295 -> 305 ;
306 [label=<node &#35;306<br/>balance &le; 103.5<br/>gini = 0.375<br/>samples = 0.1%<br/>value = [0.75, 0.25]<br/>class = No>, fillcolor="#eeab7b"] ;
305 -> 306 ;
307 [label=<node &#35;307<br/>gini = 0.0<br/>samples = 0.0%<br/>value = [1.0, 0.0]<br/>class = No>, fillcolor="#e58139"] ;
306 -> 307 ;
308 [label=<node &#35;308<br/>gini = 0.0<br/>samples = 0.0%<br/>value = [0.0, 1.0]<br/>class = Yes>, fillcolor="#399de5"] ;
306 -> 308 ;
309 [label=<node &#35;309<br/>gini = 0.0<br/>samples = 0.0%<br/>value = [0.0, 1.0]<br/>class = Yes>, fillcolor="#399de5"] ;
305 -> 309 ;
310 [label=<node &#35;310<br/>age &le; 61.5<br/>gini = 0.17<br/>samples = 2.0%<br/>value = [0.906, 0.094]<br/>class = No>, fillcolor="#e88e4d"] ;
264 -> 310 ;
311 [label=<node &#35;311<br/>age &le; 29.5<br/>gini = 0.132<br/>samples = 2.0%<br/>value = [0.929, 0.071]<br/>class = No>, fillcolor="#e78b48"] ;
310 -> 311 ;
312 [label=<node &#35;312<br/>job_technician &le; 0.5<br/>gini = 0.391<br/>samples = 0.2%<br/>value = [0.733, 0.267]<br/>class = No>, fillcolor="#eeaf81"] ;
311 -> 312 ;
313 [label=<node &#35;313<br/>balance &le; 93.0<br/>gini = 0.26<br/>samples = 0.2%<br/>value = [0.846, 0.154]<br/>class = No>, fillcolor="#ea985d"] ;
312 -> 313 ;
314 [label=<node &#35;314<br/>gini = 0.0<br/>samples = 0.1%<br/>value = [1.0, 0.0]<br/>class = No>, fillcolor="#e58139"] ;
313 -> 314 ;
315 [label=<node &#35;315<br/>deposit_cat &le; 0.5<br/>gini = 0.48<br/>samples = 0.1%<br/>value = [0.6, 0.4]<br/>class = No>, fillcolor="#f6d5bd"] ;
313 -> 315 ;
316 [label=<node &#35;316<br/>age &le; 27.5<br/>gini = 0.444<br/>samples = 0.0%<br/>value = [0.333, 0.667]<br/>class = Yes>, fillcolor="#9ccef2"] ;
315 -> 316 ;
317 [label=<node &#35;317<br/>gini = 0.0<br/>samples = 0.0%<br/>value = [1.0, 0.0]<br/>class = No>, fillcolor="#e58139"] ;
316 -> 317 ;
318 [label=<node &#35;318<br/>gini = 0.0<br/>samples = 0.0%<br/>value = [0.0, 1.0]<br/>class = Yes>, fillcolor="#399de5"] ;
316 -> 318 ;
319 [label=<node &#35;319<br/>gini = 0.0<br/>samples = 0.0%<br/>value = [1.0, 0.0]<br/>class = No>, fillcolor="#e58139"] ;
315 -> 319 ;
320 [label=<node &#35;320<br/>gini = 0.0<br/>samples = 0.0%<br/>value = [0.0, 1.0]<br/>class = Yes>, fillcolor="#399de5"] ;
312 -> 320 ;
321 [label=<node &#35;321<br/>job_self-employed &le; 0.5<br/>gini = 0.095<br/>samples = 1.8%<br/>value = [0.95, 0.05]<br/>class = No>, fillcolor="#e68843"] ;
311 -> 321 ;
322 [label=<node &#35;322<br/>age &le; 34.5<br/>gini = 0.053<br/>samples = 1.4%<br/>value = [0.973, 0.027]<br/>class = No>, fillcolor="#e6853f"] ;
321 -> 322 ;
323 [label=<node &#35;323<br/>balance &le; 7.0<br/>gini = 0.17<br/>samples = 0.4%<br/>value = [0.906, 0.094]<br/>class = No>, fillcolor="#e88e4d"] ;
322 -> 323 ;
324 [label=<node &#35;324<br/>job_technician &le; 0.5<br/>gini = 0.355<br/>samples = 0.2%<br/>value = [0.769, 0.231]<br/>class = No>, fillcolor="#eda774"] ;
323 -> 324 ;
325 [label=<node &#35;325<br/>gini = 0.0<br/>samples = 0.0%<br/>value = [0.0, 1.0]<br/>class = Yes>, fillcolor="#399de5"] ;
324 -> 325 ;
326 [label=<node &#35;326<br/>age &le; 33.5<br/>gini = 0.278<br/>samples = 0.2%<br/>value = [0.833, 0.167]<br/>class = No>, fillcolor="#ea9a61"] ;
324 -> 326 ;
327 [label=<node &#35;327<br/>education_secondary &le; 0.5<br/>gini = 0.18<br/>samples = 0.1%<br/>value = [0.9, 0.1]<br/>class = No>, fillcolor="#e88f4f"] ;
326 -> 327 ;
328 [label=<node &#35;328<br/>marital_divorced &le; 0.5<br/>gini = 0.444<br/>samples = 0.0%<br/>value = [0.667, 0.333]<br/>class = No>, fillcolor="#f2c09c"] ;
327 -> 328 ;
329 [label=<node &#35;329<br/>gini = 0.0<br/>samples = 0.0%<br/>value = [0.0, 1.0]<br/>class = Yes>, fillcolor="#399de5"] ;
328 -> 329 ;
330 [label=<node &#35;330<br/>gini = 0.0<br/>samples = 0.0%<br/>value = [1.0, 0.0]<br/>class = No>, fillcolor="#e58139"] ;
328 -> 330 ;
331 [label=<node &#35;331<br/>gini = 0.0<br/>samples = 0.1%<br/>value = [1.0, 0.0]<br/>class = No>, fillcolor="#e58139"] ;
327 -> 331 ;
332 [label=<node &#35;332<br/>duration &le; 147.0<br/>gini = 0.5<br/>samples = 0.0%<br/>value = [0.5, 0.5]<br/>class = No>, fillcolor="#ffffff"] ;
326 -> 332 ;
333 [label=<node &#35;333<br/>gini = 0.0<br/>samples = 0.0%<br/>value = [1.0, 0.0]<br/>class = No>, fillcolor="#e58139"] ;
332 -> 333 ;
334 [label=<node &#35;334<br/>gini = 0.0<br/>samples = 0.0%<br/>value = [0.0, 1.0]<br/>class = Yes>, fillcolor="#399de5"] ;
332 -> 334 ;
335 [label=<node &#35;335<br/>gini = 0.0<br/>samples = 0.2%<br/>value = [1.0, 0.0]<br/>class = No>, fillcolor="#e58139"] ;
323 -> 335 ;
336 [label=<node &#35;336<br/>gini = 0.0<br/>samples = 1.0%<br/>value = [1.0, 0.0]<br/>class = No>, fillcolor="#e58139"] ;
322 -> 336 ;
337 [label=<node &#35;337<br/>age &le; 55.5<br/>gini = 0.231<br/>samples = 0.4%<br/>value = [0.867, 0.133]<br/>class = No>, fillcolor="#e99457"] ;
321 -> 337 ;
338 [label=<node &#35;338<br/>campaign &le; 6.5<br/>gini = 0.137<br/>samples = 0.3%<br/>value = [0.926, 0.074]<br/>class = No>, fillcolor="#e78b49"] ;
337 -> 338 ;
339 [label=<node &#35;339<br/>balance &le; 60.0<br/>gini = 0.077<br/>samples = 0.3%<br/>value = [0.96, 0.04]<br/>class = No>, fillcolor="#e68641"] ;
338 -> 339 ;
340 [label=<node &#35;340<br/>gini = 0.0<br/>samples = 0.2%<br/>value = [1.0, 0.0]<br/>class = No>, fillcolor="#e58139"] ;
339 -> 340 ;
341 [label=<node &#35;341<br/>balance &le; 98.0<br/>gini = 0.219<br/>samples = 0.1%<br/>value = [0.875, 0.125]<br/>class = No>, fillcolor="#e99355"] ;
339 -> 341 ;
342 [label=<node &#35;342<br/>gini = 0.0<br/>samples = 0.0%<br/>value = [0.0, 1.0]<br/>class = Yes>, fillcolor="#399de5"] ;
341 -> 342 ;
343 [label=<node &#35;343<br/>gini = 0.0<br/>samples = 0.1%<br/>value = [1.0, 0.0]<br/>class = No>, fillcolor="#e58139"] ;
341 -> 343 ;
344 [label=<node &#35;344<br/>job_white-collar &le; 0.5<br/>gini = 0.5<br/>samples = 0.0%<br/>value = [0.5, 0.5]<br/>class = No>, fillcolor="#ffffff"] ;
338 -> 344 ;
345 [label=<node &#35;345<br/>gini = 0.0<br/>samples = 0.0%<br/>value = [0.0, 1.0]<br/>class = Yes>, fillcolor="#399de5"] ;
344 -> 345 ;
346 [label=<node &#35;346<br/>gini = 0.0<br/>samples = 0.0%<br/>value = [1.0, 0.0]<br/>class = No>, fillcolor="#e58139"] ;
344 -> 346 ;
347 [label=<node &#35;347<br/>education_unknown &le; 0.5<br/>gini = 0.444<br/>samples = 0.0%<br/>value = [0.333, 0.667]<br/>class = Yes>, fillcolor="#9ccef2"] ;
337 -> 347 ;
348 [label=<node &#35;348<br/>duration &le; 165.0<br/>gini = 0.5<br/>samples = 0.0%<br/>value = [0.5, 0.5]<br/>class = No>, fillcolor="#ffffff"] ;
347 -> 348 ;
349 [label=<node &#35;349<br/>gini = 0.0<br/>samples = 0.0%<br/>value = [1.0, 0.0]<br/>class = No>, fillcolor="#e58139"] ;
348 -> 349 ;
350 [label=<node &#35;350<br/>gini = 0.0<br/>samples = 0.0%<br/>value = [0.0, 1.0]<br/>class = Yes>, fillcolor="#399de5"] ;
348 -> 350 ;
351 [label=<node &#35;351<br/>gini = 0.0<br/>samples = 0.0%<br/>value = [0.0, 1.0]<br/>class = Yes>, fillcolor="#399de5"] ;
347 -> 351 ;
352 [label=<node &#35;352<br/>balance &le; 151.0<br/>gini = 0.32<br/>samples = 0.1%<br/>value = [0.2, 0.8]<br/>class = Yes>, fillcolor="#6ab6ec"] ;
310 -> 352 ;
353 [label=<node &#35;353<br/>gini = 0.0<br/>samples = 0.1%<br/>value = [0.0, 1.0]<br/>class = Yes>, fillcolor="#399de5"] ;
352 -> 353 ;
354 [label=<node &#35;354<br/>gini = 0.0<br/>samples = 0.0%<br/>value = [1.0, 0.0]<br/>class = No>, fillcolor="#e58139"] ;
352 -> 354 ;
355 [label=<node &#35;355<br/>campaign &le; 3.5<br/>gini = 0.496<br/>samples = 6.7%<br/>value = [0.545, 0.455]<br/>class = No>, fillcolor="#fbeade"] ;
249 -> 355 ;
356 [label=<node &#35;356<br/>recent_pdays &le; 0.003<br/>gini = 0.5<br/>samples = 5.6%<br/>value = [0.49, 0.51]<br/>class = Yes>, fillcolor="#f7fbfe"] ;
355 -> 356 ;
357 [label=<node &#35;357<br/>age &le; 60.5<br/>gini = 0.497<br/>samples = 4.7%<br/>value = [0.538, 0.462]<br/>class = No>, fillcolor="#fbede3"] ;
356 -> 357 ;
358 [label=<node &#35;358<br/>marital_single &le; 0.5<br/>gini = 0.484<br/>samples = 4.1%<br/>value = [0.59, 0.41]<br/>class = No>, fillcolor="#f7d9c3"] ;
357 -> 358 ;
359 [label=<node &#35;359<br/>age &le; 39.5<br/>gini = 0.496<br/>samples = 3.6%<br/>value = [0.545, 0.455]<br/>class = No>, fillcolor="#fbeade"] ;
358 -> 359 ;
360 [label=<node &#35;360<br/>loan_cat &le; 0.5<br/>gini = 0.495<br/>samples = 2.0%<br/>value = [0.451, 0.549]<br/>class = Yes>, fillcolor="#dceefa"] ;
359 -> 360 ;
361 [label=<node &#35;361<br/>job_pink-collar &le; 0.5<br/>gini = 0.489<br/>samples = 1.8%<br/>value = [0.426, 0.574]<br/>class = Yes>, fillcolor="#cce6f8"] ;
360 -> 361 ;
362 [label=<node &#35;362<br/>age &le; 29.5<br/>gini = 0.483<br/>samples = 1.7%<br/>value = [0.407, 0.593]<br/>class = Yes>, fillcolor="#c1e0f7"] ;
361 -> 362 ;
363 [label=<node &#35;363<br/>age &le; 23.5<br/>gini = 0.408<br/>samples = 0.6%<br/>value = [0.286, 0.714]<br/>class = Yes>, fillcolor="#88c4ef"] ;
362 -> 363 ;
364 [label=<node &#35;364<br/>age &le; 21.5<br/>gini = 0.444<br/>samples = 0.2%<br/>value = [0.667, 0.333]<br/>class = No>, fillcolor="#f2c09c"] ;
363 -> 364 ;
365 [label=<node &#35;365<br/>duration &le; 125.5<br/>gini = 0.444<br/>samples = 0.1%<br/>value = [0.333, 0.667]<br/>class = Yes>, fillcolor="#9ccef2"] ;
364 -> 365 ;
366 [label=<node &#35;366<br/>gini = 0.0<br/>samples = 0.0%<br/>value = [1.0, 0.0]<br/>class = No>, fillcolor="#e58139"] ;
365 -> 366 ;
367 [label=<node &#35;367<br/>gini = 0.0<br/>samples = 0.1%<br/>value = [0.0, 1.0]<br/>class = Yes>, fillcolor="#399de5"] ;
365 -> 367 ;
368 [label=<node &#35;368<br/>gini = 0.0<br/>samples = 0.1%<br/>value = [1.0, 0.0]<br/>class = No>, fillcolor="#e58139"] ;
364 -> 368 ;
369 [label=<node &#35;369<br/>job_white-collar &le; 0.5<br/>gini = 0.272<br/>samples = 0.5%<br/>value = [0.162, 0.838]<br/>class = Yes>, fillcolor="#5fb0ea"] ;
363 -> 369 ;
370 [label=<node &#35;370<br/>campaign &le; 2.5<br/>gini = 0.202<br/>samples = 0.4%<br/>value = [0.114, 0.886]<br/>class = Yes>, fillcolor="#53aae8"] ;
369 -> 370 ;
371 [label=<node &#35;371<br/>duration &le; 139.5<br/>gini = 0.165<br/>samples = 0.4%<br/>value = [0.091, 0.909]<br/>class = Yes>, fillcolor="#4da7e8"] ;
370 -> 371 ;
372 [label=<node &#35;372<br/>duration &le; 136.5<br/>gini = 0.355<br/>samples = 0.2%<br/>value = [0.231, 0.769]<br/>class = Yes>, fillcolor="#74baed"] ;
371 -> 372 ;
373 [label=<node &#35;373<br/>duration &le; 117.0<br/>gini = 0.165<br/>samples = 0.1%<br/>value = [0.091, 0.909]<br/>class = Yes>, fillcolor="#4da7e8"] ;
372 -> 373 ;
374 [label=<node &#35;374<br/>job_self-employed &le; 0.5<br/>gini = 0.5<br/>samples = 0.0%<br/>value = [0.5, 0.5]<br/>class = No>, fillcolor="#ffffff"] ;
373 -> 374 ;
375 [label=<node &#35;375<br/>gini = 0.0<br/>samples = 0.0%<br/>value = [1.0, 0.0]<br/>class = No>, fillcolor="#e58139"] ;
374 -> 375 ;
376 [label=<node &#35;376<br/>gini = 0.0<br/>samples = 0.0%<br/>value = [0.0, 1.0]<br/>class = Yes>, fillcolor="#399de5"] ;
374 -> 376 ;
377 [label=<node &#35;377<br/>gini = 0.0<br/>samples = 0.1%<br/>value = [0.0, 1.0]<br/>class = Yes>, fillcolor="#399de5"] ;
373 -> 377 ;
378 [label=<node &#35;378<br/>gini = 0.0<br/>samples = 0.0%<br/>value = [1.0, 0.0]<br/>class = No>, fillcolor="#e58139"] ;
372 -> 378 ;
379 [label=<node &#35;379<br/>gini = 0.0<br/>samples = 0.3%<br/>value = [0.0, 1.0]<br/>class = Yes>, fillcolor="#399de5"] ;
371 -> 379 ;
380 [label=<node &#35;380<br/>education_primary &le; 0.5<br/>gini = 0.5<br/>samples = 0.0%<br/>value = [0.5, 0.5]<br/>class = No>, fillcolor="#ffffff"] ;
370 -> 380 ;
381 [label=<node &#35;381<br/>gini = 0.0<br/>samples = 0.0%<br/>value = [1.0, 0.0]<br/>class = No>, fillcolor="#e58139"] ;
380 -> 381 ;
382 [label=<node &#35;382<br/>gini = 0.0<br/>samples = 0.0%<br/>value = [0.0, 1.0]<br/>class = Yes>, fillcolor="#399de5"] ;
380 -> 382 ;
383 [label=<node &#35;383<br/>gini = 0.0<br/>samples = 0.0%<br/>value = [1.0, 0.0]<br/>class = No>, fillcolor="#e58139"] ;
369 -> 383 ;
384 [label=<node &#35;384<br/>age &le; 34.5<br/>gini = 0.499<br/>samples = 1.1%<br/>value = [0.477, 0.523]<br/>class = Yes>, fillcolor="#edf6fd"] ;
362 -> 384 ;
385 [label=<node &#35;385<br/>balance &le; 2466.0<br/>gini = 0.482<br/>samples = 0.6%<br/>value = [0.596, 0.404]<br/>class = No>, fillcolor="#f7d7bf"] ;
384 -> 385 ;
386 [label=<node &#35;386<br/>balance &le; 258.5<br/>gini = 0.438<br/>samples = 0.5%<br/>value = [0.676, 0.324]<br/>class = No>, fillcolor="#f1bd98"] ;
385 -> 386 ;
387 [label=<node &#35;387<br/>gini = 0.0<br/>samples = 0.0%<br/>value = [0.0, 1.0]<br/>class = Yes>, fillcolor="#399de5"] ;
386 -> 387 ;
388 [label=<node &#35;388<br/>duration &le; 119.5<br/>gini = 0.408<br/>samples = 0.4%<br/>value = [0.714, 0.286]<br/>class = No>, fillcolor="#efb388"] ;
386 -> 388 ;
389 [label=<node &#35;389<br/>gini = 0.0<br/>samples = 0.0%<br/>value = [0.0, 1.0]<br/>class = Yes>, fillcolor="#399de5"] ;
388 -> 389 ;
390 [label=<node &#35;390<br/>education_primary &le; 0.5<br/>gini = 0.389<br/>samples = 0.4%<br/>value = [0.735, 0.265]<br/>class = No>, fillcolor="#eeae80"] ;
388 -> 390 ;
391 [label=<node &#35;391<br/>previous &le; 13.5<br/>gini = 0.255<br/>samples = 0.3%<br/>value = [0.85, 0.15]<br/>class = No>, fillcolor="#ea975c"] ;
390 -> 391 ;
392 [label=<node &#35;392<br/>duration &le; 126.5<br/>gini = 0.188<br/>samples = 0.2%<br/>value = [0.895, 0.105]<br/>class = No>, fillcolor="#e89050"] ;
391 -> 392 ;
393 [label=<node &#35;393<br/>marital_divorced &le; 0.5<br/>gini = 0.5<br/>samples = 0.0%<br/>value = [0.5, 0.5]<br/>class = No>, fillcolor="#ffffff"] ;
392 -> 393 ;
394 [label=<node &#35;394<br/>gini = 0.0<br/>samples = 0.0%<br/>value = [1.0, 0.0]<br/>class = No>, fillcolor="#e58139"] ;
393 -> 394 ;
395 [label=<node &#35;395<br/>gini = 0.0<br/>samples = 0.0%<br/>value = [0.0, 1.0]<br/>class = Yes>, fillcolor="#399de5"] ;
393 -> 395 ;
396 [label=<node &#35;396<br/>age &le; 30.5<br/>gini = 0.111<br/>samples = 0.2%<br/>value = [0.941, 0.059]<br/>class = No>, fillcolor="#e78945"] ;
392 -> 396 ;
397 [label=<node &#35;397<br/>duration &le; 186.5<br/>gini = 0.444<br/>samples = 0.0%<br/>value = [0.667, 0.333]<br/>class = No>, fillcolor="#f2c09c"] ;
396 -> 397 ;
398 [label=<node &#35;398<br/>gini = 0.0<br/>samples = 0.0%<br/>value = [1.0, 0.0]<br/>class = No>, fillcolor="#e58139"] ;
397 -> 398 ;
399 [label=<node &#35;399<br/>gini = 0.0<br/>samples = 0.0%<br/>value = [0.0, 1.0]<br/>class = Yes>, fillcolor="#399de5"] ;
397 -> 399 ;
400 [label=<node &#35;400<br/>gini = 0.0<br/>samples = 0.2%<br/>value = [1.0, 0.0]<br/>class = No>, fillcolor="#e58139"] ;
396 -> 400 ;
401 [label=<node &#35;401<br/>gini = 0.0<br/>samples = 0.0%<br/>value = [0.0, 1.0]<br/>class = Yes>, fillcolor="#399de5"] ;
391 -> 401 ;
402 [label=<node &#35;402<br/>job_self-employed &le; 0.5<br/>gini = 0.49<br/>samples = 0.2%<br/>value = [0.571, 0.429]<br/>class = No>, fillcolor="#f8e0ce"] ;
390 -> 402 ;
403 [label=<node &#35;403<br/>balance &le; 789.5<br/>gini = 0.48<br/>samples = 0.1%<br/>value = [0.4, 0.6]<br/>class = Yes>, fillcolor="#bddef6"] ;
402 -> 403 ;
404 [label=<node &#35;404<br/>age &le; 32.5<br/>gini = 0.444<br/>samples = 0.1%<br/>value = [0.667, 0.333]<br/>class = No>, fillcolor="#f2c09c"] ;
403 -> 404 ;
405 [label=<node &#35;405<br/>gini = 0.0<br/>samples = 0.0%<br/>value = [1.0, 0.0]<br/>class = No>, fillcolor="#e58139"] ;
404 -> 405 ;
406 [label=<node &#35;406<br/>marital_married &le; 0.5<br/>gini = 0.444<br/>samples = 0.0%<br/>value = [0.333, 0.667]<br/>class = Yes>, fillcolor="#9ccef2"] ;
404 -> 406 ;
407 [label=<node &#35;407<br/>gini = 0.0<br/>samples = 0.0%<br/>value = [0.0, 1.0]<br/>class = Yes>, fillcolor="#399de5"] ;
406 -> 407 ;
408 [label=<node &#35;408<br/>gini = 0.0<br/>samples = 0.0%<br/>value = [1.0, 0.0]<br/>class = No>, fillcolor="#e58139"] ;
406 -> 408 ;
409 [label=<node &#35;409<br/>gini = 0.0<br/>samples = 0.1%<br/>value = [0.0, 1.0]<br/>class = Yes>, fillcolor="#399de5"] ;
403 -> 409 ;
410 [label=<node &#35;410<br/>gini = 0.0<br/>samples = 0.1%<br/>value = [1.0, 0.0]<br/>class = No>, fillcolor="#e58139"] ;
402 -> 410 ;
411 [label=<node &#35;411<br/>marital_divorced &le; 0.5<br/>gini = 0.42<br/>samples = 0.1%<br/>value = [0.3, 0.7]<br/>class = Yes>, fillcolor="#8ec7f0"] ;
385 -> 411 ;
412 [label=<node &#35;412<br/>balance &le; 7660.5<br/>gini = 0.245<br/>samples = 0.1%<br/>value = [0.143, 0.857]<br/>class = Yes>, fillcolor="#5aade9"] ;
411 -> 412 ;
413 [label=<node &#35;413<br/>gini = 0.0<br/>samples = 0.1%<br/>value = [0.0, 1.0]<br/>class = Yes>, fillcolor="#399de5"] ;
412 -> 413 ;
414 [label=<node &#35;414<br/>gini = 0.0<br/>samples = 0.0%<br/>value = [1.0, 0.0]<br/>class = No>, fillcolor="#e58139"] ;
412 -> 414 ;
415 [label=<node &#35;415<br/>duration &le; 153.5<br/>gini = 0.444<br/>samples = 0.0%<br/>value = [0.667, 0.333]<br/>class = No>, fillcolor="#f2c09c"] ;
411 -> 415 ;
416 [label=<node &#35;416<br/>gini = 0.0<br/>samples = 0.0%<br/>value = [0.0, 1.0]<br/>class = Yes>, fillcolor="#399de5"] ;
415 -> 416 ;
417 [label=<node &#35;417<br/>gini = 0.0<br/>samples = 0.0%<br/>value = [1.0, 0.0]<br/>class = No>, fillcolor="#e58139"] ;
415 -> 417 ;
418 [label=<node &#35;418<br/>duration &le; 173.5<br/>gini = 0.444<br/>samples = 0.5%<br/>value = [0.333, 0.667]<br/>class = Yes>, fillcolor="#9ccef2"] ;
384 -> 418 ;
419 [label=<node &#35;419<br/>duration &le; 147.5<br/>gini = 0.375<br/>samples = 0.4%<br/>value = [0.25, 0.75]<br/>class = Yes>, fillcolor="#7bbeee"] ;
418 -> 419 ;
420 [label=<node &#35;420<br/>age &le; 38.0<br/>gini = 0.5<br/>samples = 0.1%<br/>value = [0.5, 0.5]<br/>class = No>, fillcolor="#ffffff"] ;
419 -> 420 ;
421 [label=<node &#35;421<br/>duration &le; 118.5<br/>gini = 0.469<br/>samples = 0.1%<br/>value = [0.625, 0.375]<br/>class = No>, fillcolor="#f5cdb0"] ;
420 -> 421 ;
422 [label=<node &#35;422<br/>gini = 0.0<br/>samples = 0.0%<br/>value = [0.0, 1.0]<br/>class = Yes>, fillcolor="#399de5"] ;
421 -> 422 ;
423 [label=<node &#35;423<br/>marital_married &le; 0.5<br/>gini = 0.408<br/>samples = 0.1%<br/>value = [0.714, 0.286]<br/>class = No>, fillcolor="#efb388"] ;
421 -> 423 ;
424 [label=<node &#35;424<br/>campaign &le; 1.5<br/>gini = 0.278<br/>samples = 0.1%<br/>value = [0.833, 0.167]<br/>class = No>, fillcolor="#ea9a61"] ;
423 -> 424 ;
425 [label=<node &#35;425<br/>gini = 0.0<br/>samples = 0.1%<br/>value = [1.0, 0.0]<br/>class = No>, fillcolor="#e58139"] ;
424 -> 425 ;
426 [label=<node &#35;426<br/>balance &le; 2779.5<br/>gini = 0.5<br/>samples = 0.0%<br/>value = [0.5, 0.5]<br/>class = No>, fillcolor="#ffffff"] ;
424 -> 426 ;
427 [label=<node &#35;427<br/>gini = 0.0<br/>samples = 0.0%<br/>value = [1.0, 0.0]<br/>class = No>, fillcolor="#e58139"] ;
426 -> 427 ;
428 [label=<node &#35;428<br/>gini = 0.0<br/>samples = 0.0%<br/>value = [0.0, 1.0]<br/>class = Yes>, fillcolor="#399de5"] ;
426 -> 428 ;
429 [label=<node &#35;429<br/>gini = 0.0<br/>samples = 0.0%<br/>value = [0.0, 1.0]<br/>class = Yes>, fillcolor="#399de5"] ;
423 -> 429 ;
430 [label=<node &#35;430<br/>gini = 0.0<br/>samples = 0.0%<br/>value = [0.0, 1.0]<br/>class = Yes>, fillcolor="#399de5"] ;
420 -> 430 ;
431 [label=<node &#35;431<br/>deposit_cat &le; 0.5<br/>gini = 0.198<br/>samples = 0.2%<br/>value = [0.111, 0.889]<br/>class = Yes>, fillcolor="#52a9e8"] ;
419 -> 431 ;
432 [label=<node &#35;432<br/>duration &le; 168.5<br/>gini = 0.117<br/>samples = 0.2%<br/>value = [0.062, 0.938]<br/>class = Yes>, fillcolor="#46a4e7"] ;
431 -> 432 ;
433 [label=<node &#35;433<br/>gini = 0.0<br/>samples = 0.2%<br/>value = [0.0, 1.0]<br/>class = Yes>, fillcolor="#399de5"] ;
432 -> 433 ;
434 [label=<node &#35;434<br/>balance &le; 684.0<br/>gini = 0.444<br/>samples = 0.0%<br/>value = [0.333, 0.667]<br/>class = Yes>, fillcolor="#9ccef2"] ;
432 -> 434 ;
435 [label=<node &#35;435<br/>gini = 0.0<br/>samples = 0.0%<br/>value = [0.0, 1.0]<br/>class = Yes>, fillcolor="#399de5"] ;
434 -> 435 ;
436 [label=<node &#35;436<br/>gini = 0.0<br/>samples = 0.0%<br/>value = [1.0, 0.0]<br/>class = No>, fillcolor="#e58139"] ;
434 -> 436 ;
437 [label=<node &#35;437<br/>duration &le; 152.0<br/>gini = 0.5<br/>samples = 0.0%<br/>value = [0.5, 0.5]<br/>class = No>, fillcolor="#ffffff"] ;
431 -> 437 ;
438 [label=<node &#35;438<br/>gini = 0.0<br/>samples = 0.0%<br/>value = [0.0, 1.0]<br/>class = Yes>, fillcolor="#399de5"] ;
437 -> 438 ;
439 [label=<node &#35;439<br/>gini = 0.0<br/>samples = 0.0%<br/>value = [1.0, 0.0]<br/>class = No>, fillcolor="#e58139"] ;
437 -> 439 ;
440 [label=<node &#35;440<br/>job_self-employed &le; 0.5<br/>gini = 0.496<br/>samples = 0.1%<br/>value = [0.545, 0.455]<br/>class = No>, fillcolor="#fbeade"] ;
418 -> 440 ;
441 [label=<node &#35;441<br/>age &le; 38.5<br/>gini = 0.469<br/>samples = 0.1%<br/>value = [0.375, 0.625]<br/>class = Yes>, fillcolor="#b0d8f5"] ;
440 -> 441 ;
442 [label=<node &#35;442<br/>duration &le; 188.0<br/>gini = 0.48<br/>samples = 0.1%<br/>value = [0.6, 0.4]<br/>class = No>, fillcolor="#f6d5bd"] ;
441 -> 442 ;
443 [label=<node &#35;443<br/>marital_divorced &le; 0.5<br/>gini = 0.444<br/>samples = 0.0%<br/>value = [0.333, 0.667]<br/>class = Yes>, fillcolor="#9ccef2"] ;
442 -> 443 ;
444 [label=<node &#35;444<br/>gini = 0.0<br/>samples = 0.0%<br/>value = [0.0, 1.0]<br/>class = Yes>, fillcolor="#399de5"] ;
443 -> 444 ;
445 [label=<node &#35;445<br/>gini = 0.0<br/>samples = 0.0%<br/>value = [1.0, 0.0]<br/>class = No>, fillcolor="#e58139"] ;
443 -> 445 ;
446 [label=<node &#35;446<br/>gini = 0.0<br/>samples = 0.0%<br/>value = [1.0, 0.0]<br/>class = No>, fillcolor="#e58139"] ;
442 -> 446 ;
447 [label=<node &#35;447<br/>gini = 0.0<br/>samples = 0.0%<br/>value = [0.0, 1.0]<br/>class = Yes>, fillcolor="#399de5"] ;
441 -> 447 ;
448 [label=<node &#35;448<br/>gini = 0.0<br/>samples = 0.0%<br/>value = [1.0, 0.0]<br/>class = No>, fillcolor="#e58139"] ;
440 -> 448 ;
449 [label=<node &#35;449<br/>education_secondary &le; 0.5<br/>gini = 0.278<br/>samples = 0.1%<br/>value = [0.833, 0.167]<br/>class = No>, fillcolor="#ea9a61"] ;
361 -> 449 ;
450 [label=<node &#35;450<br/>gini = 0.0<br/>samples = 0.0%<br/>value = [0.0, 1.0]<br/>class = Yes>, fillcolor="#399de5"] ;
449 -> 450 ;
451 [label=<node &#35;451<br/>gini = 0.0<br/>samples = 0.1%<br/>value = [1.0, 0.0]<br/>class = No>, fillcolor="#e58139"] ;
449 -> 451 ;
452 [label=<node &#35;452<br/>balance &le; 1325.0<br/>gini = 0.375<br/>samples = 0.2%<br/>value = [0.75, 0.25]<br/>class = No>, fillcolor="#eeab7b"] ;
360 -> 452 ;
453 [label=<node &#35;453<br/>gini = 0.0<br/>samples = 0.1%<br/>value = [1.0, 0.0]<br/>class = No>, fillcolor="#e58139"] ;
452 -> 453 ;
454 [label=<node &#35;454<br/>gini = 0.0<br/>samples = 0.0%<br/>value = [0.0, 1.0]<br/>class = Yes>, fillcolor="#399de5"] ;
452 -> 454 ;
455 [label=<node &#35;455<br/>duration &le; 177.5<br/>gini = 0.45<br/>samples = 1.6%<br/>value = [0.659, 0.341]<br/>class = No>, fillcolor="#f2c2a0"] ;
359 -> 455 ;
456 [label=<node &#35;456<br/>campaign &le; 1.5<br/>gini = 0.388<br/>samples = 1.2%<br/>value = [0.736, 0.264]<br/>class = No>, fillcolor="#eeae80"] ;
455 -> 456 ;
457 [label=<node &#35;457<br/>duration &le; 142.5<br/>gini = 0.483<br/>samples = 0.6%<br/>value = [0.591, 0.409]<br/>class = No>, fillcolor="#f7d8c2"] ;
456 -> 457 ;
458 [label=<node &#35;458<br/>duration &le; 131.5<br/>gini = 0.488<br/>samples = 0.2%<br/>value = [0.421, 0.579]<br/>class = Yes>, fillcolor="#c9e4f8"] ;
457 -> 458 ;
459 [label=<node &#35;459<br/>job_white-collar &le; 0.5<br/>gini = 0.473<br/>samples = 0.2%<br/>value = [0.615, 0.385]<br/>class = No>, fillcolor="#f5d0b5"] ;
458 -> 459 ;
460 [label=<node &#35;460<br/>duration &le; 115.5<br/>gini = 0.32<br/>samples = 0.1%<br/>value = [0.8, 0.2]<br/>class = No>, fillcolor="#eca06a"] ;
459 -> 460 ;
461 [label=<node &#35;461<br/>gini = 0.0<br/>samples = 0.0%<br/>value = [0.0, 1.0]<br/>class = Yes>, fillcolor="#399de5"] ;
460 -> 461 ;
462 [label=<node &#35;462<br/>gini = 0.0<br/>samples = 0.1%<br/>value = [1.0, 0.0]<br/>class = No>, fillcolor="#e58139"] ;
460 -> 462 ;
463 [label=<node &#35;463<br/>gini = 0.0<br/>samples = 0.0%<br/>value = [0.0, 1.0]<br/>class = Yes>, fillcolor="#399de5"] ;
459 -> 463 ;
464 [label=<node &#35;464<br/>gini = 0.0<br/>samples = 0.1%<br/>value = [0.0, 1.0]<br/>class = Yes>, fillcolor="#399de5"] ;
458 -> 464 ;
465 [label=<node &#35;465<br/>marital_divorced &le; 0.5<br/>gini = 0.403<br/>samples = 0.3%<br/>value = [0.72, 0.28]<br/>class = No>, fillcolor="#efb286"] ;
457 -> 465 ;
466 [label=<node &#35;466<br/>gini = 0.0<br/>samples = 0.1%<br/>value = [1.0, 0.0]<br/>class = No>, fillcolor="#e58139"] ;
465 -> 466 ;
467 [label=<node &#35;467<br/>job_technician &le; 0.5<br/>gini = 0.498<br/>samples = 0.2%<br/>value = [0.533, 0.467]<br/>class = No>, fillcolor="#fcefe6"] ;
465 -> 467 ;
468 [label=<node &#35;468<br/>age &le; 44.5<br/>gini = 0.42<br/>samples = 0.1%<br/>value = [0.7, 0.3]<br/>class = No>, fillcolor="#f0b78e"] ;
467 -> 468 ;
469 [label=<node &#35;469<br/>education_primary &le; 0.5<br/>gini = 0.375<br/>samples = 0.1%<br/>value = [0.25, 0.75]<br/>class = Yes>, fillcolor="#7bbeee"] ;
468 -> 469 ;
470 [label=<node &#35;470<br/>gini = 0.0<br/>samples = 0.0%<br/>value = [0.0, 1.0]<br/>class = Yes>, fillcolor="#399de5"] ;
469 -> 470 ;
471 [label=<node &#35;471<br/>duration &le; 162.5<br/>gini = 0.5<br/>samples = 0.0%<br/>value = [0.5, 0.5]<br/>class = No>, fillcolor="#ffffff"] ;
469 -> 471 ;
472 [label=<node &#35;472<br/>gini = 0.0<br/>samples = 0.0%<br/>value = [1.0, 0.0]<br/>class = No>, fillcolor="#e58139"] ;
471 -> 472 ;
473 [label=<node &#35;473<br/>gini = 0.0<br/>samples = 0.0%<br/>value = [0.0, 1.0]<br/>class = Yes>, fillcolor="#399de5"] ;
471 -> 473 ;
474 [label=<node &#35;474<br/>gini = 0.0<br/>samples = 0.1%<br/>value = [1.0, 0.0]<br/>class = No>, fillcolor="#e58139"] ;
468 -> 474 ;
475 [label=<node &#35;475<br/>loan_cat &le; 0.5<br/>gini = 0.32<br/>samples = 0.1%<br/>value = [0.2, 0.8]<br/>class = Yes>, fillcolor="#6ab6ec"] ;
467 -> 475 ;
476 [label=<node &#35;476<br/>gini = 0.0<br/>samples = 0.1%<br/>value = [0.0, 1.0]<br/>class = Yes>, fillcolor="#399de5"] ;
475 -> 476 ;
477 [label=<node &#35;477<br/>gini = 0.0<br/>samples = 0.0%<br/>value = [1.0, 0.0]<br/>class = No>, fillcolor="#e58139"] ;
475 -> 477 ;
478 [label=<node &#35;478<br/>balance &le; 1353.0<br/>gini = 0.223<br/>samples = 0.6%<br/>value = [0.872, 0.128]<br/>class = No>, fillcolor="#e99356"] ;
456 -> 478 ;
479 [label=<node &#35;479<br/>gini = 0.0<br/>samples = 0.3%<br/>value = [1.0, 0.0]<br/>class = No>, fillcolor="#e58139"] ;
478 -> 479 ;
480 [label=<node &#35;480<br/>balance &le; 1660.0<br/>gini = 0.375<br/>samples = 0.3%<br/>value = [0.75, 0.25]<br/>class = No>, fillcolor="#eeab7b"] ;
478 -> 480 ;
481 [label=<node &#35;481<br/>gini = 0.0<br/>samples = 0.0%<br/>value = [0.0, 1.0]<br/>class = Yes>, fillcolor="#399de5"] ;
480 -> 481 ;
482 [label=<node &#35;482<br/>duration &le; 165.5<br/>gini = 0.298<br/>samples = 0.3%<br/>value = [0.818, 0.182]<br/>class = No>, fillcolor="#eb9d65"] ;
480 -> 482 ;
483 [label=<node &#35;483<br/>balance &le; 6354.0<br/>gini = 0.245<br/>samples = 0.3%<br/>value = [0.857, 0.143]<br/>class = No>, fillcolor="#e9965a"] ;
482 -> 483 ;
484 [label=<node &#35;484<br/>duration &le; 159.0<br/>gini = 0.111<br/>samples = 0.2%<br/>value = [0.941, 0.059]<br/>class = No>, fillcolor="#e78945"] ;
483 -> 484 ;
485 [label=<node &#35;485<br/>gini = 0.0<br/>samples = 0.2%<br/>value = [1.0, 0.0]<br/>class = No>, fillcolor="#e58139"] ;
484 -> 485 ;
486 [label=<node &#35;486<br/>balance &le; 2732.0<br/>gini = 0.444<br/>samples = 0.0%<br/>value = [0.667, 0.333]<br/>class = No>, fillcolor="#f2c09c"] ;
484 -> 486 ;
487 [label=<node &#35;487<br/>gini = 0.0<br/>samples = 0.0%<br/>value = [1.0, 0.0]<br/>class = No>, fillcolor="#e58139"] ;
486 -> 487 ;
488 [label=<node &#35;488<br/>gini = 0.0<br/>samples = 0.0%<br/>value = [0.0, 1.0]<br/>class = Yes>, fillcolor="#399de5"] ;
486 -> 488 ;
489 [label=<node &#35;489<br/>balance &le; 8387.0<br/>gini = 0.5<br/>samples = 0.1%<br/>value = [0.5, 0.5]<br/>class = No>, fillcolor="#ffffff"] ;
483 -> 489 ;
490 [label=<node &#35;490<br/>gini = 0.0<br/>samples = 0.0%<br/>value = [0.0, 1.0]<br/>class = Yes>, fillcolor="#399de5"] ;
489 -> 490 ;
491 [label=<node &#35;491<br/>gini = 0.0<br/>samples = 0.0%<br/>value = [1.0, 0.0]<br/>class = No>, fillcolor="#e58139"] ;
489 -> 491 ;
492 [label=<node &#35;492<br/>gini = 0.0<br/>samples = 0.0%<br/>value = [0.0, 1.0]<br/>class = Yes>, fillcolor="#399de5"] ;
482 -> 492 ;
493 [label=<node &#35;493<br/>balance &le; 2383.0<br/>gini = 0.496<br/>samples = 0.4%<br/>value = [0.457, 0.543]<br/>class = Yes>, fillcolor="#e0f0fb"] ;
455 -> 493 ;
494 [label=<node &#35;494<br/>balance &le; 1363.0<br/>gini = 0.48<br/>samples = 0.3%<br/>value = [0.6, 0.4]<br/>class = No>, fillcolor="#f6d5bd"] ;
493 -> 494 ;
495 [label=<node &#35;495<br/>deposit_cat &le; 0.5<br/>gini = 0.499<br/>samples = 0.3%<br/>value = [0.524, 0.476]<br/>class = No>, fillcolor="#fdf4ed"] ;
494 -> 495 ;
496 [label=<node &#35;496<br/>duration &le; 201.0<br/>gini = 0.494<br/>samples = 0.2%<br/>value = [0.444, 0.556]<br/>class = Yes>, fillcolor="#d7ebfa"] ;
495 -> 496 ;
497 [label=<node &#35;497<br/>duration &le; 183.0<br/>gini = 0.498<br/>samples = 0.2%<br/>value = [0.533, 0.467]<br/>class = No>, fillcolor="#fcefe6"] ;
496 -> 497 ;
498 [label=<node &#35;498<br/>gini = 0.0<br/>samples = 0.0%<br/>value = [0.0, 1.0]<br/>class = Yes>, fillcolor="#399de5"] ;
497 -> 498 ;
499 [label=<node &#35;499<br/>job_pink-collar &le; 0.5<br/>gini = 0.473<br/>samples = 0.2%<br/>value = [0.615, 0.385]<br/>class = No>, fillcolor="#f5d0b5"] ;
497 -> 499 ;
500 [label=<node &#35;500<br/>job_entrepreneur &le; 0.5<br/>gini = 0.444<br/>samples = 0.2%<br/>value = [0.667, 0.333]<br/>class = No>, fillcolor="#f2c09c"] ;
499 -> 500 ;
501 [label=<node &#35;501<br/>balance &le; 956.0<br/>gini = 0.397<br/>samples = 0.1%<br/>value = [0.727, 0.273]<br/>class = No>, fillcolor="#efb083"] ;
500 -> 501 ;
502 [label=<node &#35;502<br/>job_other &le; 0.5<br/>gini = 0.219<br/>samples = 0.1%<br/>value = [0.875, 0.125]<br/>class = No>, fillcolor="#e99355"] ;
501 -> 502 ;
503 [label=<node &#35;503<br/>gini = 0.0<br/>samples = 0.1%<br/>value = [1.0, 0.0]<br/>class = No>, fillcolor="#e58139"] ;
502 -> 503 ;
504 [label=<node &#35;504<br/>balance &le; 458.5<br/>gini = 0.5<br/>samples = 0.0%<br/>value = [0.5, 0.5]<br/>class = No>, fillcolor="#ffffff"] ;
502 -> 504 ;
505 [label=<node &#35;505<br/>gini = 0.0<br/>samples = 0.0%<br/>value = [1.0, 0.0]<br/>class = No>, fillcolor="#e58139"] ;
504 -> 505 ;
506 [label=<node &#35;506<br/>gini = 0.0<br/>samples = 0.0%<br/>value = [0.0, 1.0]<br/>class = Yes>, fillcolor="#399de5"] ;
504 -> 506 ;
507 [label=<node &#35;507<br/>education_primary &le; 0.5<br/>gini = 0.444<br/>samples = 0.0%<br/>value = [0.333, 0.667]<br/>class = Yes>, fillcolor="#9ccef2"] ;
501 -> 507 ;
508 [label=<node &#35;508<br/>gini = 0.0<br/>samples = 0.0%<br/>value = [0.0, 1.0]<br/>class = Yes>, fillcolor="#399de5"] ;
507 -> 508 ;
509 [label=<node &#35;509<br/>gini = 0.0<br/>samples = 0.0%<br/>value = [1.0, 0.0]<br/>class = No>, fillcolor="#e58139"] ;
507 -> 509 ;
510 [label=<node &#35;510<br/>gini = 0.0<br/>samples = 0.0%<br/>value = [0.0, 1.0]<br/>class = Yes>, fillcolor="#399de5"] ;
500 -> 510 ;
511 [label=<node &#35;511<br/>gini = 0.0<br/>samples = 0.0%<br/>value = [0.0, 1.0]<br/>class = Yes>, fillcolor="#399de5"] ;
499 -> 511 ;
512 [label=<node &#35;512<br/>gini = 0.0<br/>samples = 0.0%<br/>value = [0.0, 1.0]<br/>class = Yes>, fillcolor="#399de5"] ;
496 -> 512 ;
513 [label=<node &#35;513<br/>gini = 0.0<br/>samples = 0.0%<br/>value = [1.0, 0.0]<br/>class = No>, fillcolor="#e58139"] ;
495 -> 513 ;
514 [label=<node &#35;514<br/>gini = 0.0<br/>samples = 0.1%<br/>value = [1.0, 0.0]<br/>class = No>, fillcolor="#e58139"] ;
494 -> 514 ;
515 [label=<node &#35;515<br/>job_pink-collar &le; 0.5<br/>gini = 0.18<br/>samples = 0.1%<br/>value = [0.1, 0.9]<br/>class = Yes>, fillcolor="#4fa8e8"] ;
493 -> 515 ;
516 [label=<node &#35;516<br/>gini = 0.0<br/>samples = 0.1%<br/>value = [0.0, 1.0]<br/>class = Yes>, fillcolor="#399de5"] ;
515 -> 516 ;
517 [label=<node &#35;517<br/>gini = 0.0<br/>samples = 0.0%<br/>value = [1.0, 0.0]<br/>class = No>, fillcolor="#e58139"] ;
515 -> 517 ;
518 [label=<node &#35;518<br/>age &le; 26.5<br/>gini = 0.145<br/>samples = 0.5%<br/>value = [0.921, 0.079]<br/>class = No>, fillcolor="#e78c4a"] ;
358 -> 518 ;
519 [label=<node &#35;519<br/>gini = 0.0<br/>samples = 0.0%<br/>value = [0.0, 1.0]<br/>class = Yes>, fillcolor="#399de5"] ;
518 -> 519 ;
520 [label=<node &#35;520<br/>age &le; 57.5<br/>gini = 0.102<br/>samples = 0.5%<br/>value = [0.946, 0.054]<br/>class = No>, fillcolor="#e68844"] ;
518 -> 520 ;
521 [label=<node &#35;521<br/>balance &le; 318.5<br/>gini = 0.057<br/>samples = 0.4%<br/>value = [0.971, 0.029]<br/>class = No>, fillcolor="#e6853f"] ;
520 -> 521 ;
522 [label=<node &#35;522<br/>balance &le; 275.0<br/>gini = 0.444<br/>samples = 0.0%<br/>value = [0.667, 0.333]<br/>class = No>, fillcolor="#f2c09c"] ;
521 -> 522 ;
523 [label=<node &#35;523<br/>gini = 0.0<br/>samples = 0.0%<br/>value = [1.0, 0.0]<br/>class = No>, fillcolor="#e58139"] ;
522 -> 523 ;
524 [label=<node &#35;524<br/>gini = 0.0<br/>samples = 0.0%<br/>value = [0.0, 1.0]<br/>class = Yes>, fillcolor="#399de5"] ;
522 -> 524 ;
525 [label=<node &#35;525<br/>gini = 0.0<br/>samples = 0.4%<br/>value = [1.0, 0.0]<br/>class = No>, fillcolor="#e58139"] ;
521 -> 525 ;
526 [label=<node &#35;526<br/>balance &le; 933.0<br/>gini = 0.444<br/>samples = 0.0%<br/>value = [0.667, 0.333]<br/>class = No>, fillcolor="#f2c09c"] ;
520 -> 526 ;
527 [label=<node &#35;527<br/>gini = 0.0<br/>samples = 0.0%<br/>value = [1.0, 0.0]<br/>class = No>, fillcolor="#e58139"] ;
526 -> 527 ;
528 [label=<node &#35;528<br/>gini = 0.0<br/>samples = 0.0%<br/>value = [0.0, 1.0]<br/>class = Yes>, fillcolor="#399de5"] ;
526 -> 528 ;
529 [label=<node &#35;529<br/>education_tertiary &le; 0.5<br/>gini = 0.31<br/>samples = 0.6%<br/>value = [0.191, 0.809]<br/>class = Yes>, fillcolor="#68b4eb"] ;
357 -> 529 ;
530 [label=<node &#35;530<br/>duration &le; 160.0<br/>gini = 0.263<br/>samples = 0.6%<br/>value = [0.156, 0.844]<br/>class = Yes>, fillcolor="#5dafea"] ;
529 -> 530 ;
531 [label=<node &#35;531<br/>duration &le; 148.5<br/>gini = 0.384<br/>samples = 0.3%<br/>value = [0.259, 0.741]<br/>class = Yes>, fillcolor="#7ebfee"] ;
530 -> 531 ;
532 [label=<node &#35;532<br/>balance &le; 1730.0<br/>gini = 0.255<br/>samples = 0.3%<br/>value = [0.15, 0.85]<br/>class = Yes>, fillcolor="#5caeea"] ;
531 -> 532 ;
533 [label=<node &#35;533<br/>gini = 0.0<br/>samples = 0.1%<br/>value = [0.0, 1.0]<br/>class = Yes>, fillcolor="#399de5"] ;
532 -> 533 ;
534 [label=<node &#35;534<br/>balance &le; 2412.5<br/>gini = 0.375<br/>samples = 0.2%<br/>value = [0.25, 0.75]<br/>class = Yes>, fillcolor="#7bbeee"] ;
532 -> 534 ;
535 [label=<node &#35;535<br/>gini = 0.0<br/>samples = 0.0%<br/>value = [1.0, 0.0]<br/>class = No>, fillcolor="#e58139"] ;
534 -> 535 ;
536 [label=<node &#35;536<br/>campaign &le; 2.5<br/>gini = 0.18<br/>samples = 0.1%<br/>value = [0.1, 0.9]<br/>class = Yes>, fillcolor="#4fa8e8"] ;
534 -> 536 ;
537 [label=<node &#35;537<br/>gini = 0.0<br/>samples = 0.1%<br/>value = [0.0, 1.0]<br/>class = Yes>, fillcolor="#399de5"] ;
536 -> 537 ;
538 [label=<node &#35;538<br/>gini = 0.0<br/>samples = 0.0%<br/>value = [1.0, 0.0]<br/>class = No>, fillcolor="#e58139"] ;
536 -> 538 ;
539 [label=<node &#35;539<br/>age &le; 69.5<br/>gini = 0.49<br/>samples = 0.1%<br/>value = [0.571, 0.429]<br/>class = No>, fillcolor="#f8e0ce"] ;
531 -> 539 ;
540 [label=<node &#35;540<br/>gini = 0.0<br/>samples = 0.0%<br/>value = [0.0, 1.0]<br/>class = Yes>, fillcolor="#399de5"] ;
539 -> 540 ;
541 [label=<node &#35;541<br/>marital_divorced &le; 0.5<br/>gini = 0.32<br/>samples = 0.1%<br/>value = [0.8, 0.2]<br/>class = No>, fillcolor="#eca06a"] ;
539 -> 541 ;
542 [label=<node &#35;542<br/>gini = 0.0<br/>samples = 0.0%<br/>value = [0.0, 1.0]<br/>class = Yes>, fillcolor="#399de5"] ;
541 -> 542 ;
543 [label=<node &#35;543<br/>gini = 0.0<br/>samples = 0.1%<br/>value = [1.0, 0.0]<br/>class = No>, fillcolor="#e58139"] ;
541 -> 543 ;
544 [label=<node &#35;544<br/>gini = 0.0<br/>samples = 0.2%<br/>value = [0.0, 1.0]<br/>class = Yes>, fillcolor="#399de5"] ;
530 -> 544 ;
545 [label=<node &#35;545<br/>gini = 0.0<br/>samples = 0.0%<br/>value = [1.0, 0.0]<br/>class = No>, fillcolor="#e58139"] ;
529 -> 545 ;
546 [label=<node &#35;546<br/>recent_pdays &le; 0.037<br/>gini = 0.378<br/>samples = 1.0%<br/>value = [0.253, 0.747]<br/>class = Yes>, fillcolor="#7cbeee"] ;
356 -> 546 ;
547 [label=<node &#35;547<br/>recent_pdays &le; 0.007<br/>gini = 0.333<br/>samples = 0.9%<br/>value = [0.211, 0.789]<br/>class = Yes>, fillcolor="#6eb7ec"] ;
546 -> 547 ;
548 [label=<node &#35;548<br/>recent_pdays &le; 0.006<br/>gini = 0.444<br/>samples = 0.4%<br/>value = [0.333, 0.667]<br/>class = Yes>, fillcolor="#9ccef2"] ;
547 -> 548 ;
549 [label=<node &#35;549<br/>duration &le; 164.0<br/>gini = 0.355<br/>samples = 0.3%<br/>value = [0.231, 0.769]<br/>class = Yes>, fillcolor="#74baed"] ;
548 -> 549 ;
550 [label=<node &#35;550<br/>duration &le; 153.0<br/>gini = 0.497<br/>samples = 0.2%<br/>value = [0.462, 0.538]<br/>class = Yes>, fillcolor="#e3f1fb"] ;
549 -> 550 ;
551 [label=<node &#35;551<br/>loan_cat &le; 0.5<br/>gini = 0.42<br/>samples = 0.1%<br/>value = [0.3, 0.7]<br/>class = Yes>, fillcolor="#8ec7f0"] ;
550 -> 551 ;
552 [label=<node &#35;552<br/>gini = 0.0<br/>samples = 0.1%<br/>value = [0.0, 1.0]<br/>class = Yes>, fillcolor="#399de5"] ;
551 -> 552 ;
553 [label=<node &#35;553<br/>gini = 0.0<br/>samples = 0.0%<br/>value = [1.0, 0.0]<br/>class = No>, fillcolor="#e58139"] ;
551 -> 553 ;
554 [label=<node &#35;554<br/>gini = 0.0<br/>samples = 0.0%<br/>value = [1.0, 0.0]<br/>class = No>, fillcolor="#e58139"] ;
550 -> 554 ;
555 [label=<node &#35;555<br/>gini = 0.0<br/>samples = 0.2%<br/>value = [0.0, 1.0]<br/>class = Yes>, fillcolor="#399de5"] ;
549 -> 555 ;
556 [label=<node &#35;556<br/>poutcome_success &le; 0.5<br/>gini = 0.408<br/>samples = 0.1%<br/>value = [0.714, 0.286]<br/>class = No>, fillcolor="#efb388"] ;
548 -> 556 ;
557 [label=<node &#35;557<br/>gini = 0.0<br/>samples = 0.1%<br/>value = [1.0, 0.0]<br/>class = No>, fillcolor="#e58139"] ;
556 -> 557 ;
558 [label=<node &#35;558<br/>gini = 0.0<br/>samples = 0.0%<br/>value = [0.0, 1.0]<br/>class = Yes>, fillcolor="#399de5"] ;
556 -> 558 ;
559 [label=<node &#35;559<br/>age &le; 39.0<br/>gini = 0.188<br/>samples = 0.5%<br/>value = [0.105, 0.895]<br/>class = Yes>, fillcolor="#50a9e8"] ;
547 -> 559 ;
560 [label=<node &#35;560<br/>gini = 0.0<br/>samples = 0.3%<br/>value = [0.0, 1.0]<br/>class = Yes>, fillcolor="#399de5"] ;
559 -> 560 ;
561 [label=<node &#35;561<br/>recent_pdays &le; 0.009<br/>gini = 0.391<br/>samples = 0.2%<br/>value = [0.267, 0.733]<br/>class = Yes>, fillcolor="#81c1ee"] ;
559 -> 561 ;
562 [label=<node &#35;562<br/>age &le; 51.0<br/>gini = 0.444<br/>samples = 0.0%<br/>value = [0.667, 0.333]<br/>class = No>, fillcolor="#f2c09c"] ;
561 -> 562 ;
563 [label=<node &#35;563<br/>gini = 0.0<br/>samples = 0.0%<br/>value = [1.0, 0.0]<br/>class = No>, fillcolor="#e58139"] ;
562 -> 563 ;
564 [label=<node &#35;564<br/>gini = 0.0<br/>samples = 0.0%<br/>value = [0.0, 1.0]<br/>class = Yes>, fillcolor="#399de5"] ;
562 -> 564 ;
565 [label=<node &#35;565<br/>balance &le; 404.0<br/>gini = 0.278<br/>samples = 0.2%<br/>value = [0.167, 0.833]<br/>class = Yes>, fillcolor="#61b1ea"] ;
561 -> 565 ;
566 [label=<node &#35;566<br/>gini = 0.0<br/>samples = 0.0%<br/>value = [1.0, 0.0]<br/>class = No>, fillcolor="#e58139"] ;
565 -> 566 ;
567 [label=<node &#35;567<br/>age &le; 40.5<br/>gini = 0.165<br/>samples = 0.1%<br/>value = [0.091, 0.909]<br/>class = Yes>, fillcolor="#4da7e8"] ;
565 -> 567 ;
568 [label=<node &#35;568<br/>gini = 0.0<br/>samples = 0.0%<br/>value = [1.0, 0.0]<br/>class = No>, fillcolor="#e58139"] ;
567 -> 568 ;
569 [label=<node &#35;569<br/>gini = 0.0<br/>samples = 0.1%<br/>value = [0.0, 1.0]<br/>class = Yes>, fillcolor="#399de5"] ;
567 -> 569 ;
570 [label=<node &#35;570<br/>gini = 0.0<br/>samples = 0.1%<br/>value = [1.0, 0.0]<br/>class = No>, fillcolor="#e58139"] ;
546 -> 570 ;
571 [label=<node &#35;571<br/>duration &le; 169.5<br/>gini = 0.288<br/>samples = 1.1%<br/>value = [0.826, 0.174]<br/>class = No>, fillcolor="#ea9c63"] ;
355 -> 571 ;
572 [label=<node &#35;572<br/>age &le; 28.5<br/>gini = 0.113<br/>samples = 0.6%<br/>value = [0.94, 0.06]<br/>class = No>, fillcolor="#e78946"] ;
571 -> 572 ;
573 [label=<node &#35;573<br/>campaign &le; 4.5<br/>gini = 0.48<br/>samples = 0.1%<br/>value = [0.6, 0.4]<br/>class = No>, fillcolor="#f6d5bd"] ;
572 -> 573 ;
574 [label=<node &#35;574<br/>gini = 0.0<br/>samples = 0.0%<br/>value = [0.0, 1.0]<br/>class = Yes>, fillcolor="#399de5"] ;
573 -> 574 ;
575 [label=<node &#35;575<br/>gini = 0.0<br/>samples = 0.0%<br/>value = [1.0, 0.0]<br/>class = No>, fillcolor="#e58139"] ;
573 -> 575 ;
576 [label=<node &#35;576<br/>job_technician &le; 0.5<br/>gini = 0.043<br/>samples = 0.6%<br/>value = [0.978, 0.022]<br/>class = No>, fillcolor="#e6843d"] ;
572 -> 576 ;
577 [label=<node &#35;577<br/>gini = 0.0<br/>samples = 0.4%<br/>value = [1.0, 0.0]<br/>class = No>, fillcolor="#e58139"] ;
576 -> 577 ;
578 [label=<node &#35;578<br/>duration &le; 143.5<br/>gini = 0.142<br/>samples = 0.2%<br/>value = [0.923, 0.077]<br/>class = No>, fillcolor="#e78c49"] ;
576 -> 578 ;
579 [label=<node &#35;579<br/>gini = 0.0<br/>samples = 0.1%<br/>value = [1.0, 0.0]<br/>class = No>, fillcolor="#e58139"] ;
578 -> 579 ;
580 [label=<node &#35;580<br/>duration &le; 146.0<br/>gini = 0.375<br/>samples = 0.1%<br/>value = [0.75, 0.25]<br/>class = No>, fillcolor="#eeab7b"] ;
578 -> 580 ;
581 [label=<node &#35;581<br/>gini = 0.0<br/>samples = 0.0%<br/>value = [0.0, 1.0]<br/>class = Yes>, fillcolor="#399de5"] ;
580 -> 581 ;
582 [label=<node &#35;582<br/>gini = 0.0<br/>samples = 0.0%<br/>value = [1.0, 0.0]<br/>class = No>, fillcolor="#e58139"] ;
580 -> 582 ;
583 [label=<node &#35;583<br/>marital_divorced &le; 0.5<br/>gini = 0.444<br/>samples = 0.5%<br/>value = [0.667, 0.333]<br/>class = No>, fillcolor="#f2c09c"] ;
571 -> 583 ;
584 [label=<node &#35;584<br/>campaign &le; 6.5<br/>gini = 0.48<br/>samples = 0.2%<br/>value = [0.4, 0.6]<br/>class = Yes>, fillcolor="#bddef6"] ;
583 -> 584 ;
585 [label=<node &#35;585<br/>duration &le; 191.5<br/>gini = 0.375<br/>samples = 0.2%<br/>value = [0.25, 0.75]<br/>class = Yes>, fillcolor="#7bbeee"] ;
584 -> 585 ;
586 [label=<node &#35;586<br/>age &le; 37.0<br/>gini = 0.49<br/>samples = 0.1%<br/>value = [0.429, 0.571]<br/>class = Yes>, fillcolor="#cee6f8"] ;
585 -> 586 ;
587 [label=<node &#35;587<br/>balance &le; 1053.0<br/>gini = 0.32<br/>samples = 0.1%<br/>value = [0.2, 0.8]<br/>class = Yes>, fillcolor="#6ab6ec"] ;
586 -> 587 ;
588 [label=<node &#35;588<br/>gini = 0.0<br/>samples = 0.0%<br/>value = [0.0, 1.0]<br/>class = Yes>, fillcolor="#399de5"] ;
587 -> 588 ;
589 [label=<node &#35;589<br/>education_primary &le; 0.5<br/>gini = 0.5<br/>samples = 0.0%<br/>value = [0.5, 0.5]<br/>class = No>, fillcolor="#ffffff"] ;
587 -> 589 ;
590 [label=<node &#35;590<br/>gini = 0.0<br/>samples = 0.0%<br/>value = [0.0, 1.0]<br/>class = Yes>, fillcolor="#399de5"] ;
589 -> 590 ;
591 [label=<node &#35;591<br/>gini = 0.0<br/>samples = 0.0%<br/>value = [1.0, 0.0]<br/>class = No>, fillcolor="#e58139"] ;
589 -> 591 ;
592 [label=<node &#35;592<br/>gini = 0.0<br/>samples = 0.0%<br/>value = [1.0, 0.0]<br/>class = No>, fillcolor="#e58139"] ;
586 -> 592 ;
593 [label=<node &#35;593<br/>gini = 0.0<br/>samples = 0.1%<br/>value = [0.0, 1.0]<br/>class = Yes>, fillcolor="#399de5"] ;
585 -> 593 ;
594 [label=<node &#35;594<br/>gini = 0.0<br/>samples = 0.0%<br/>value = [1.0, 0.0]<br/>class = No>, fillcolor="#e58139"] ;
584 -> 594 ;
595 [label=<node &#35;595<br/>job_blue-collar &le; 0.5<br/>gini = 0.245<br/>samples = 0.3%<br/>value = [0.857, 0.143]<br/>class = No>, fillcolor="#e9965a"] ;
583 -> 595 ;
596 [label=<node &#35;596<br/>recent_pdays &le; 0.004<br/>gini = 0.18<br/>samples = 0.3%<br/>value = [0.9, 0.1]<br/>class = No>, fillcolor="#e88f4f"] ;
595 -> 596 ;
597 [label=<node &#35;597<br/>age &le; 35.5<br/>gini = 0.1<br/>samples = 0.2%<br/>value = [0.947, 0.053]<br/>class = No>, fillcolor="#e68844"] ;
596 -> 597 ;
598 [label=<node &#35;598<br/>age &le; 34.5<br/>gini = 0.219<br/>samples = 0.1%<br/>value = [0.875, 0.125]<br/>class = No>, fillcolor="#e99355"] ;
597 -> 598 ;
599 [label=<node &#35;599<br/>gini = 0.0<br/>samples = 0.1%<br/>value = [1.0, 0.0]<br/>class = No>, fillcolor="#e58139"] ;
598 -> 599 ;
600 [label=<node &#35;600<br/>balance &le; 996.0<br/>gini = 0.5<br/>samples = 0.0%<br/>value = [0.5, 0.5]<br/>class = No>, fillcolor="#ffffff"] ;
598 -> 600 ;
601 [label=<node &#35;601<br/>gini = 0.0<br/>samples = 0.0%<br/>value = [0.0, 1.0]<br/>class = Yes>, fillcolor="#399de5"] ;
600 -> 601 ;
602 [label=<node &#35;602<br/>gini = 0.0<br/>samples = 0.0%<br/>value = [1.0, 0.0]<br/>class = No>, fillcolor="#e58139"] ;
600 -> 602 ;
603 [label=<node &#35;603<br/>gini = 0.0<br/>samples = 0.1%<br/>value = [1.0, 0.0]<br/>class = No>, fillcolor="#e58139"] ;
597 -> 603 ;
604 [label=<node &#35;604<br/>gini = 0.0<br/>samples = 0.0%<br/>value = [0.0, 1.0]<br/>class = Yes>, fillcolor="#399de5"] ;
596 -> 604 ;
605 [label=<node &#35;605<br/>gini = 0.0<br/>samples = 0.0%<br/>value = [0.0, 1.0]<br/>class = Yes>, fillcolor="#399de5"] ;
595 -> 605 ;
606 [label=<node &#35;606<br/>recent_pdays &le; 0.006<br/>gini = 0.212<br/>samples = 9.6%<br/>value = [0.88, 0.12]<br/>class = No>, fillcolor="#e99254"] ;
248 -> 606 ;
607 [label=<node &#35;607<br/>age &le; 59.5<br/>gini = 0.187<br/>samples = 9.0%<br/>value = [0.895, 0.105]<br/>class = No>, fillcolor="#e89050"] ;
606 -> 607 ;
608 [label=<node &#35;608<br/>education_secondary &le; 0.5<br/>gini = 0.176<br/>samples = 8.9%<br/>value = [0.902, 0.098]<br/>class = No>, fillcolor="#e88f4e"] ;
607 -> 608 ;
609 [label=<node &#35;609<br/>campaign &le; 1.5<br/>gini = 0.128<br/>samples = 6.7%<br/>value = [0.931, 0.069]<br/>class = No>, fillcolor="#e78a48"] ;
608 -> 609 ;
610 [label=<node &#35;610<br/>balance &le; 234.5<br/>gini = 0.192<br/>samples = 3.0%<br/>value = [0.892, 0.108]<br/>class = No>, fillcolor="#e89051"] ;
609 -> 610 ;
611 [label=<node &#35;611<br/>duration &le; 155.0<br/>gini = 0.06<br/>samples = 1.2%<br/>value = [0.969, 0.031]<br/>class = No>, fillcolor="#e6853f"] ;
610 -> 611 ;
612 [label=<node &#35;612<br/>duration &le; 153.5<br/>gini = 0.117<br/>samples = 0.6%<br/>value = [0.938, 0.062]<br/>class = No>, fillcolor="#e78946"] ;
611 -> 612 ;
613 [label=<node &#35;613<br/>job_technician &le; 0.5<br/>gini = 0.081<br/>samples = 0.6%<br/>value = [0.957, 0.043]<br/>class = No>, fillcolor="#e68742"] ;
612 -> 613 ;
614 [label=<node &#35;614<br/>gini = 0.0<br/>samples = 0.5%<br/>value = [1.0, 0.0]<br/>class = No>, fillcolor="#e58139"] ;
613 -> 614 ;
615 [label=<node &#35;615<br/>balance &le; 84.5<br/>gini = 0.298<br/>samples = 0.1%<br/>value = [0.818, 0.182]<br/>class = No>, fillcolor="#eb9d65"] ;
613 -> 615 ;
616 [label=<node &#35;616<br/>gini = 0.0<br/>samples = 0.1%<br/>value = [1.0, 0.0]<br/>class = No>, fillcolor="#e58139"] ;
615 -> 616 ;
617 [label=<node &#35;617<br/>balance &le; 156.5<br/>gini = 0.444<br/>samples = 0.0%<br/>value = [0.333, 0.667]<br/>class = Yes>, fillcolor="#9ccef2"] ;
615 -> 617 ;
618 [label=<node &#35;618<br/>gini = 0.0<br/>samples = 0.0%<br/>value = [0.0, 1.0]<br/>class = Yes>, fillcolor="#399de5"] ;
617 -> 618 ;
619 [label=<node &#35;619<br/>gini = 0.0<br/>samples = 0.0%<br/>value = [1.0, 0.0]<br/>class = No>, fillcolor="#e58139"] ;
617 -> 619 ;
620 [label=<node &#35;620<br/>gini = 0.0<br/>samples = 0.0%<br/>value = [0.0, 1.0]<br/>class = Yes>, fillcolor="#399de5"] ;
612 -> 620 ;
621 [label=<node &#35;621<br/>gini = 0.0<br/>samples = 0.6%<br/>value = [1.0, 0.0]<br/>class = No>, fillcolor="#e58139"] ;
611 -> 621 ;
622 [label=<node &#35;622<br/>age &le; 53.5<br/>gini = 0.273<br/>samples = 1.7%<br/>value = [0.837, 0.163]<br/>class = No>, fillcolor="#ea9a60"] ;
610 -> 622 ;
623 [label=<node &#35;623<br/>duration &le; 160.5<br/>gini = 0.232<br/>samples = 1.6%<br/>value = [0.866, 0.134]<br/>class = No>, fillcolor="#e99458"] ;
622 -> 623 ;
624 [label=<node &#35;624<br/>balance &le; 273.0<br/>gini = 0.324<br/>samples = 0.8%<br/>value = [0.797, 0.203]<br/>class = No>, fillcolor="#eca16b"] ;
623 -> 624 ;
625 [label=<node &#35;625<br/>gini = 0.0<br/>samples = 0.0%<br/>value = [0.0, 1.0]<br/>class = Yes>, fillcolor="#399de5"] ;
624 -> 625 ;
626 [label=<node &#35;626<br/>balance &le; 1396.5<br/>gini = 0.308<br/>samples = 0.8%<br/>value = [0.81, 0.19]<br/>class = No>, fillcolor="#eb9f68"] ;
624 -> 626 ;
627 [label=<node &#35;627<br/>recent_pdays &le; 0.004<br/>gini = 0.219<br/>samples = 0.5%<br/>value = [0.875, 0.125]<br/>class = No>, fillcolor="#e99355"] ;
626 -> 627 ;
628 [label=<node &#35;628<br/>duration &le; 121.0<br/>gini = 0.184<br/>samples = 0.5%<br/>value = [0.897, 0.103]<br/>class = No>, fillcolor="#e88f50"] ;
627 -> 628 ;
629 [label=<node &#35;629<br/>duration &le; 119.0<br/>gini = 0.408<br/>samples = 0.1%<br/>value = [0.714, 0.286]<br/>class = No>, fillcolor="#efb388"] ;
628 -> 629 ;
630 [label=<node &#35;630<br/>job_entrepreneur &le; 0.5<br/>gini = 0.278<br/>samples = 0.1%<br/>value = [0.833, 0.167]<br/>class = No>, fillcolor="#ea9a61"] ;
629 -> 630 ;
631 [label=<node &#35;631<br/>gini = 0.0<br/>samples = 0.1%<br/>value = [1.0, 0.0]<br/>class = No>, fillcolor="#e58139"] ;
630 -> 631 ;
632 [label=<node &#35;632<br/>duration &le; 116.5<br/>gini = 0.5<br/>samples = 0.0%<br/>value = [0.5, 0.5]<br/>class = No>, fillcolor="#ffffff"] ;
630 -> 632 ;
633 [label=<node &#35;633<br/>gini = 0.0<br/>samples = 0.0%<br/>value = [1.0, 0.0]<br/>class = No>, fillcolor="#e58139"] ;
632 -> 633 ;
634 [label=<node &#35;634<br/>gini = 0.0<br/>samples = 0.0%<br/>value = [0.0, 1.0]<br/>class = Yes>, fillcolor="#399de5"] ;
632 -> 634 ;
635 [label=<node &#35;635<br/>gini = 0.0<br/>samples = 0.0%<br/>value = [0.0, 1.0]<br/>class = Yes>, fillcolor="#399de5"] ;
629 -> 635 ;
636 [label=<node &#35;636<br/>duration &le; 149.5<br/>gini = 0.117<br/>samples = 0.4%<br/>value = [0.938, 0.062]<br/>class = No>, fillcolor="#e78946"] ;
628 -> 636 ;
637 [label=<node &#35;637<br/>gini = 0.0<br/>samples = 0.3%<br/>value = [1.0, 0.0]<br/>class = No>, fillcolor="#e58139"] ;
636 -> 637 ;
638 [label=<node &#35;638<br/>marital_married &le; 0.5<br/>gini = 0.32<br/>samples = 0.1%<br/>value = [0.8, 0.2]<br/>class = No>, fillcolor="#eca06a"] ;
636 -> 638 ;
639 [label=<node &#35;639<br/>duration &le; 150.5<br/>gini = 0.198<br/>samples = 0.1%<br/>value = [0.889, 0.111]<br/>class = No>, fillcolor="#e89152"] ;
638 -> 639 ;
640 [label=<node &#35;640<br/>gini = 0.0<br/>samples = 0.0%<br/>value = [0.0, 1.0]<br/>class = Yes>, fillcolor="#399de5"] ;
639 -> 640 ;
641 [label=<node &#35;641<br/>gini = 0.0<br/>samples = 0.1%<br/>value = [1.0, 0.0]<br/>class = No>, fillcolor="#e58139"] ;
639 -> 641 ;
642 [label=<node &#35;642<br/>gini = 0.0<br/>samples = 0.0%<br/>value = [0.0, 1.0]<br/>class = Yes>, fillcolor="#399de5"] ;
638 -> 642 ;
643 [label=<node &#35;643<br/>gini = 0.0<br/>samples = 0.0%<br/>value = [0.0, 1.0]<br/>class = Yes>, fillcolor="#399de5"] ;
627 -> 643 ;
644 [label=<node &#35;644<br/>balance &le; 2726.5<br/>gini = 0.423<br/>samples = 0.3%<br/>value = [0.696, 0.304]<br/>class = No>, fillcolor="#f0b890"] ;
626 -> 644 ;
645 [label=<node &#35;645<br/>marital_divorced &le; 0.5<br/>gini = 0.5<br/>samples = 0.2%<br/>value = [0.5, 0.5]<br/>class = No>, fillcolor="#ffffff"] ;
644 -> 645 ;
646 [label=<node &#35;646<br/>duration &le; 121.5<br/>gini = 0.32<br/>samples = 0.1%<br/>value = [0.8, 0.2]<br/>class = No>, fillcolor="#eca06a"] ;
645 -> 646 ;
647 [label=<node &#35;647<br/>previous &le; 4.0<br/>gini = 0.5<br/>samples = 0.0%<br/>value = [0.5, 0.5]<br/>class = No>, fillcolor="#ffffff"] ;
646 -> 647 ;
648 [label=<node &#35;648<br/>gini = 0.0<br/>samples = 0.0%<br/>value = [0.0, 1.0]<br/>class = Yes>, fillcolor="#399de5"] ;
647 -> 648 ;
649 [label=<node &#35;649<br/>gini = 0.0<br/>samples = 0.0%<br/>value = [1.0, 0.0]<br/>class = No>, fillcolor="#e58139"] ;
647 -> 649 ;
650 [label=<node &#35;650<br/>gini = 0.0<br/>samples = 0.0%<br/>value = [1.0, 0.0]<br/>class = No>, fillcolor="#e58139"] ;
646 -> 650 ;
651 [label=<node &#35;651<br/>duration &le; 129.0<br/>gini = 0.408<br/>samples = 0.1%<br/>value = [0.286, 0.714]<br/>class = Yes>, fillcolor="#88c4ef"] ;
645 -> 651 ;
652 [label=<node &#35;652<br/>gini = 0.0<br/>samples = 0.0%<br/>value = [1.0, 0.0]<br/>class = No>, fillcolor="#e58139"] ;
651 -> 652 ;
653 [label=<node &#35;653<br/>balance &le; 1649.0<br/>gini = 0.278<br/>samples = 0.1%<br/>value = [0.167, 0.833]<br/>class = Yes>, fillcolor="#61b1ea"] ;
651 -> 653 ;
654 [label=<node &#35;654<br/>balance &le; 1437.0<br/>gini = 0.5<br/>samples = 0.0%<br/>value = [0.5, 0.5]<br/>class = No>, fillcolor="#ffffff"] ;
653 -> 654 ;
655 [label=<node &#35;655<br/>gini = 0.0<br/>samples = 0.0%<br/>value = [0.0, 1.0]<br/>class = Yes>, fillcolor="#399de5"] ;
654 -> 655 ;
656 [label=<node &#35;656<br/>gini = 0.0<br/>samples = 0.0%<br/>value = [1.0, 0.0]<br/>class = No>, fillcolor="#e58139"] ;
654 -> 656 ;
657 [label=<node &#35;657<br/>gini = 0.0<br/>samples = 0.1%<br/>value = [0.0, 1.0]<br/>class = Yes>, fillcolor="#399de5"] ;
653 -> 657 ;
658 [label=<node &#35;658<br/>age &le; 51.0<br/>gini = 0.165<br/>samples = 0.1%<br/>value = [0.909, 0.091]<br/>class = No>, fillcolor="#e88e4d"] ;
644 -> 658 ;
659 [label=<node &#35;659<br/>gini = 0.0<br/>samples = 0.1%<br/>value = [1.0, 0.0]<br/>class = No>, fillcolor="#e58139"] ;
658 -> 659 ;
660 [label=<node &#35;660<br/>duration &le; 142.0<br/>gini = 0.5<br/>samples = 0.0%<br/>value = [0.5, 0.5]<br/>class = No>, fillcolor="#ffffff"] ;
658 -> 660 ;
661 [label=<node &#35;661<br/>gini = 0.0<br/>samples = 0.0%<br/>value = [0.0, 1.0]<br/>class = Yes>, fillcolor="#399de5"] ;
660 -> 661 ;
662 [label=<node &#35;662<br/>gini = 0.0<br/>samples = 0.0%<br/>value = [1.0, 0.0]<br/>class = No>, fillcolor="#e58139"] ;
660 -> 662 ;
663 [label=<node &#35;663<br/>previous &le; 1.5<br/>gini = 0.119<br/>samples = 0.8%<br/>value = [0.937, 0.063]<br/>class = No>, fillcolor="#e78a46"] ;
623 -> 663 ;
